tree
version=v4
num_class=1
num_tree_per_iteration=1
label_index=0
max_feature_idx=37
objective=regression
feature_names=draft_age stl per dws/40 ows/40 ws/40 ast/usg 3p% ast/to drtg lane_agility fta_rate height true_shooting_% ast pf bpm shuttle standing_reach ftm fgm weight obpm pts fg% effective_fg% ft% to 3pa_rate max_vertical fta 3pa dbpm usg% reb wingspan proj_nba_3p% g
feature_infos=[9.5:27.359999999999999] [0:4.2999999999999998] [7.0800000000000001:52.700000000000003] [0.0080000000000000002:0.251] [-0.02:0.28999999999999998] [0.039:0.41099999999999998] [0.040000000000000001:3.2400000000000002] [0:1] [0.059999999999999998:5.1699999999999999] [75.900000000000006:122.09999999999999] [9.9700000000000006:13.199999999999999] [0:0.92300000000000004] [68:89] [0.27800000000000002:0.79100000000000004] [0:10.6] [1:9.8000000000000007] [-2.1000000000000001:20.100000000000001] [2.6400000000000001:3.6099999999999999] [88.5:117] [0:9.9000000000000004] [2:10.800000000000001] [149:303] [-3.2999999999999998:13.4] [6:30.800000000000001] [0.23100000000000001:0.76900000000000002] [0.25:0.79600000000000004] [0.29499999999999998:1] [0:6] [0:0.81100000000000005] [25:48] [0:14.1] [0:11.199999999999999] [-3.1000000000000001:8.9000000000000004] [11.6:39.299999999999997] [0:16.699999999999999] [70:94.75] [0.26100000000000001:0.42699999999999999] [3:86]
tree_sizes=1130 1147 1071 1160 1155 1084 1332 917 1151 915 1090 1069 1006 1008 1001 835 997 1172 1004 810 991 1163 1168 1088 1093 1258 1172 1241 758 1069 928 1072 1166 1075 919 835 1118 985 836 965 993 1085 1164 1090 1085 1088 1001 1155 900 1264 759 929 1091 1001 1095 1007 1083 1004 752 1085 994 1262 1182 1072 1258 1005 1239 1101 1081 1171 1267 925 1086 763 1106 1169 1183 927 1082 1139 841 1153 1160 1173 1076 1080 1084 1087 1163 1308 1250 921 925 919 1090 1066 1005 1005 837 996 1243 1092 1062 1092 843 837 994 760 842 911 917 927 1063 987 987 842 1023 821 846 1072 1092 1011 994 1071 1077 927 844 760 673 671 1254 889 849 905 844 1016 1084 1179 1176 1184 839 824 917 916 1066 1223 1185 1265 1015 996 1103 836 1100 1271 842 744 821 757 745 839 902 676 1152 1095 846 1161 1098 1081 931 1102 758 844 1015 841 1016 741 926 922 843 846 1017 1012 1174 1007 1083 1019 1171 752 1254 1171 925 1175 1163 668 1183 1088 1001 921 922 840 913 849 936 846 1005 845 764 845 1010 895 1093 1072 987 1070 984 823 935 1152 941 934 1175 1183 1096 1177 932 1014 1009 1096 932 758 932 1119 1102 1156 1054 985 1085 1084 1170 1170 1174 998 1106 1106 835 1062 1243 925 1183 1010

Tree=0
num_leaves=12
num_cat=0
split_feature=0 2 0 3 0 5 8 10 21 5 0
split_gain=154.272 159.904 42.9467 39.5228 26.8135 23.4246 18.5537 18.2881 16.0707 14.3288 13.4249
threshold=21.265000000000004 21.150000000000002 22.515000000000004 0.086500000000000007 20.235000000000003 0.22750000000000004 0.81500000000000006 10.935 216.50000000000003 0.20650000000000002 21.925000000000004
decision_type=2 8 2 10 2 10 10 10 2 10 2
left_child=1 7 5 4 8 6 -2 -1 -3 -4 -8
right_child=2 3 9 -5 -6 -7 10 -9 -10 -11 -12
leaf_value=-0.27553265291764284 -0.29195250481868207 -0.26266363921444141 -0.29815709960029346 -0.24118785178991534 -0.26972137303705712 -0.26479694933862574 -0.28419487592375364 -0.29396171319578257 -0.24570993793291049 -0.28289766537066069 -0.26992680618232312
leaf_weight=41 44 52 75 61 77 44 47 51 53 46 56
leaf_count=41 44 52 75 61 77 44 47 51 53 46 56
internal_value=-0.273265 -0.263829 -0.283335 -0.255317 -0.260319 -0.277276 -0.281187 -0.286062 -0.253725 -0.292635 -0.276274
internal_weight=647 335 312 243 182 191 147 92 105 121 103
internal_count=647 335 312 243 182 191 147 92 105 121 103
is_linear=0
shrinkage=1


Tree=1
num_leaves=12
num_cat=0
split_feature=0 22 3 0 26 1 1 31 32 14 6
split_gain=148.302 98.1371 65.459 41.2808 38.1804 34.458 29.8068 22.8178 21.4383 17.6329 10.6306
threshold=21.265000000000004 4.2500000000000009 0.068500000000000019 22.515000000000004 0.8155 1.3500000000000003 1.4500000000000002 2.8500000000000001 2.3500000000000001 1.9500000000000002 1.0250000000000001
decision_type=2 8 10 2 8 10 10 8 10 10 8
left_child=1 8 4 6 10 -4 7 -2 -1 -5 -3
right_child=3 2 5 9 -6 -7 -8 -9 -10 -11 -12
leaf_value=-0.018074202661712963 0.00065981239712397971 -0.0067215607762336725 0.015324394935298533 -0.02836082457109939 0.019924914137593338 0.041475240123959686 0.0077199870518275676 -0.016322762233150358 0.0016038541326468642 -0.011387287474237381 0.006871417887667393
leaf_weight=41 55 44 41 42 69 51 69 67 43 79 46
leaf_count=41 55 44 41 42 69 51 69 67 43 79 46
internal_value=0.00136408 0.0106161 0.0168872 -0.0085083 0.00884519 0.0303262 -0.00256562 -0.00856096 -0.00786526 -0.017627 5.34512e-06
internal_weight=647 335 251 312 159 92 191 122 84 121 90
internal_count=647 335 251 312 159 92 191 122 84 121 90
is_linear=0
shrinkage=0.02


Tree=2
num_leaves=11
num_cat=0
split_feature=1 34 5 7 1 35 3 33 5 2
split_gain=98.0461 62.1531 48.7148 35.1546 27.633 23.5698 16.7279 13.3603 17.4814 12.8682
threshold=1.7500000000000002 4.3500000000000005 0.17850000000000002 0.30050000000000004 2.1500000000000008 82.875000000000014 0.057500000000000009 28.550000000000004 0.20050000000000004 18.850000000000005
decision_type=8 10 8 8 10 8 10 10 8 10
left_child=2 5 6 -4 -3 -2 -1 8 -5 -8
right_child=1 4 3 7 -6 -7 9 -9 -10 -11
leaf_value=-0.019531129651835986 -0.0089957869489018499 0.014220933566622912 0.014031864486742712 0.010565548303226631 0.038197162441377129 0.011778978860896568 -0.013586645817756654 -0.012244198436653891 -0.0033230091983804835 0.00019815558634474182
leaf_weight=69 40 46 68 47 41 45 49 42 147 53
leaf_count=69 40 46 68 47 41 45 49 42 147 53
internal_value=0.00133781 0.0142524 -0.00331675 0.00143291 0.026053 0.00177914 -0.0118361 -0.00215679 0 -0.0062974
internal_weight=647 172 475 304 87 85 171 236 194 102
internal_count=647 172 475 304 87 85 171 236 194 102
is_linear=0
shrinkage=0.02


Tree=3
num_leaves=12
num_cat=0
split_feature=0 17 30 0 1 3 1 21 12 14 12
split_gain=142.018 103.603 53.703 39.686 36.7194 32.3472 28.0527 22.0976 21.731 16.7962 12.8438
threshold=21.265000000000004 2.8050000000000002 5.1500000000000012 22.515000000000004 1.2500000000000002 0.062500000000000014 1.4500000000000002 210.50000000000003 80.875000000000014 1.9500000000000002 81.125000000000014
decision_type=2 10 8 2 10 10 10 2 2 10 2
left_child=1 2 5 6 10 -1 8 -3 -2 -5 -4
right_child=3 7 4 9 -6 -7 -8 -9 -10 -11 -12
leaf_value=-0.0010929801635858087 -0.015437170789421846 -0.016914322959880036 0.0081250187173122317 -0.027776946598707244 0.040541153390270965 0.020326893680625492 0.0074545622042247227 0.0021124087075920814 0.0012694116062126482 -0.011186672709067352 0.025382058733574499
leaf_weight=71 71 47 40 42 47 44 69 46 51 79 40
leaf_count=71 71 47 40 42 47 44 69 46 51 79 40
internal_value=0.00131202 0.0103666 0.0172666 -0.00834821 0.0262482 0.00703462 -0.002519 -0.00736813 -0.00833713 -0.0172897 0.0172073
internal_weight=647 335 242 312 127 115 191 93 122 121 80
internal_count=647 335 242 312 127 115 191 93 122 121 80
is_linear=0
shrinkage=0.02


Tree=4
num_leaves=12
num_cat=0
split_feature=0 16 26 3 0 11 1 12 1 16 5
split_gain=136.545 120.404 45.1725 40.5521 38.1688 36.5897 26.9507 20.8987 18.345 17.2524 13.5218
threshold=21.265000000000004 7.6500000000000012 0.8155 0.068500000000000019 22.515000000000004 0.53200000000000014 1.4500000000000002 80.875000000000014 1.3500000000000003 5.0500000000000007 0.20650000000000002
decision_type=2 8 10 10 2 8 10 2 10 10 10
left_child=1 9 3 5 6 -3 7 -2 -5 -1 -6
right_child=4 2 -4 8 10 -7 -8 -9 -10 -11 -12
leaf_value=-0.01822922914155892 -0.015132715441286564 -0.0039716041057523506 0.036987666530268533 0.012918885488335679 -0.022309353032492495 0.018620934890469117 0.0073076009047882895 0.0012445115423403107 0.033237469113535353 -0.00077964508772960725 -0.0075068962986164899
leaf_weight=41 71 66 41 40 75 48 69 51 44 55 46
leaf_count=41 71 66 41 40 75 48 69 51 44 55 46
internal_value=0.00128741 0.0101663 0.0177715 0.0135261 -0.00818417 0.00544633 -0.00246515 -0.00816944 0.0240631 -0.00854936 -0.0169536
internal_weight=647 335 239 198 312 114 191 122 84 96 121
internal_count=647 335 239 198 312 114 191 122 84 96 121
is_linear=0
shrinkage=0.02


Tree=5
num_leaves=11
num_cat=0
split_feature=1 1 34 12 1 5 35 20 16 4
split_gain=118.547 43.4912 38.9513 28.3713 34.5021 17.4233 16.7148 29.4705 25.1131 5.45551
threshold=1.4500000000000002 2.2500000000000004 11.350000000000003 83.125000000000014 0.95000000000000007 0.18350000000000002 84.375000000000014 6.0500000000000007 11.850000000000003 0.11850000000000001
decision_type=8 10 10 2 10 10 8 10 8 8
left_child=2 6 3 4 9 -6 8 -8 -2 -1
right_child=1 -3 -4 -5 5 -7 7 -9 -10 -11
leaf_value=-0.012579386623538271 -0.0079028214388354515 0.028511304300278428 0.011438123527509362 0.006679900051405032 -0.0094930305175540096 0.0023899417017635548 0.0034475859604202784 0.024810336729947556 0.012281090390351085 -0.023479663208127024
leaf_weight=48 53 49 45 44 130 75 64 46 44 63
leaf_count=48 53 49 45 44 130 75 64 46 44 63
internal_value=0.000947659 0.0116017 -0.00574948 -0.00797907 -0.0100979 -0.00505802 0.00738498 0.0127043 0.00108058 -0.019099
internal_weight=661 256 405 360 316 205 207 110 97 111
internal_count=661 256 405 360 316 205 207 110 97 111
is_linear=0
shrinkage=0.02


Tree=6
num_leaves=14
num_cat=0
split_feature=1 24 1 1 0 0 0 37 24 9 8 15 24
split_gain=113.963 46.2465 48.1298 41.7717 37.4189 28.62 22.1962 25.7223 21.103 17.9782 15.7234 14.1119 5.77779
threshold=1.4500000000000002 0.50050000000000006 0.95000000000000007 2.2500000000000004 19.975000000000005 21.035000000000004 20.305000000000003 33.500000000000007 0.44750000000000006 101.45000000000002 0.97500000000000009 2.1500000000000008 0.50850000000000006
decision_type=8 10 10 10 2 2 2 10 10 8 10 10 10
left_child=1 6 5 4 -2 -3 7 -1 -6 -4 -8 -12 -10
right_child=3 2 9 -5 8 -7 10 -9 12 -11 11 -13 -14
leaf_value=-0.014153374399812449 0.018432836120850164 0.0029077281738999622 0.0020784134214574639 0.02795248296111822 -0.0098186763196281401 -0.019518416280979695 -0.025396761294665202 0.007860018697877726 0.011697855646411577 0.020433218436581746 -0.01783426275763374 -0.0016241339663433474 0.00072391001596337269
leaf_weight=41 75 42 43 49 47 45 52 41 44 48 51 42 41
leaf_count=41 75 42 43 49 47 45 52 41 44 48 51 42 41
internal_value=0.000931005 -0.00563474 0.00189868 0.0113776 0.00724234 -0.00855471 -0.0116121 -0.00294363 0.000642942 0.0120943 -0.0163236 -0.0108215 0.00670707
internal_weight=661 405 178 256 207 87 227 82 132 91 145 93 85
internal_count=661 405 178 256 207 87 227 82 132 91 145 93 85
is_linear=0
shrinkage=0.02


Tree=7
num_leaves=9
num_cat=0
split_feature=3 0 22 0 30 12 14 35
split_gain=102.665 68.0857 45.7146 30.3725 39.1937 34.4007 15.4475 14.0212
threshold=0.10850000000000001 22.465000000000003 5.0500000000000007 20.305000000000003 4.8500000000000005 75.125000000000014 1.9500000000000002 83.625000000000014
decision_type=10 2 8 2 10 2 10 8
left_child=1 2 7 4 -4 -5 -3 -1
right_child=-2 6 3 5 -6 -7 -8 -9
leaf_value=-0.014655941426753999 0.025219033093206465 -0.025788817263784864 0.0048620145731875977 0.016327903637455569 0.02807208627793524 -0.0031938177715724555 -0.0093015024120755053 -0.0011883017867212258
leaf_weight=69 62 41 92 44 44 180 67 62
leaf_count=69 62 41 92 44 44 180 67 62
internal_value=0.000913102 -0.00160721 0.00152705 0.00524124 0.0126672 0.000607443 -0.0159232 -0.00849075
internal_weight=661 599 491 360 136 224 108 131
internal_count=661 599 491 360 136 224 108 131
is_linear=0
shrinkage=0.02


Tree=8
num_leaves=12
num_cat=0
split_feature=1 1 0 2 0 37 6 32 25 37 30
split_gain=108.27 39.9244 38.6872 51.1018 35.3137 33.8429 21.5158 12.4915 11.0067 9.33931 9.41929
threshold=1.4500000000000002 2.2500000000000004 22.465000000000003 23.450000000000003 19.975000000000005 33.500000000000007 0.40500000000000008 1.9500000000000002 0.5655 34.500000000000007 4.8500000000000005
decision_type=8 10 2 8 2 10 10 10 10 10 8
left_child=2 4 3 7 -2 8 -7 -1 -5 10 -6
right_child=1 -3 -4 5 9 6 -8 -9 -10 -11 -12
leaf_value=-0.01737357343814961 0.017903486817683046 0.027283455380797385 -0.018519273135562737 -0.011133776676464589 0.0035450656477107921 0.0037336402040507111 0.023239116955245304 -0.0050565938528224419 0.002533234434032982 0.008414484465191531 -0.0090789318333069479
leaf_weight=72 75 49 74 46 43 55 42 73 43 42 47
leaf_count=72 75 49 74 46 43 55 42 73 43 42 47
internal_value=0.000894246 0.0110773 -0.00550459 -0.00248771 0.00703212 0.00436653 0.0125343 -0.0113867 -0.00435361 0.000616669 -0.00285501
internal_weight=661 256 405 331 207 186 97 145 89 132 90
internal_count=661 256 405 331 207 186 97 145 89 132 90
is_linear=0
shrinkage=0.02


Tree=9
num_leaves=9
num_cat=0
split_feature=3 2 14 16 15 13 29 14
split_gain=97.594 55.5524 40.6792 33.246 29.7941 20.5093 12.1879 10.2115
threshold=0.10850000000000001 19.850000000000005 2.2500000000000004 9.6500000000000004 2.6500000000000008 0.5485000000000001 27.250000000000004 2.2500000000000004
decision_type=10 8 8 8 10 10 10 10
left_child=1 7 5 -4 -5 -3 -7 -1
right_child=-2 2 3 4 -6 6 -8 -9
leaf_value=-0.02190940915544828 0.02457644960355191 -0.017981834735085325 -0.004499285658821464 0.0057038285348486777 0.023283239601712143 0.0036831218570184251 -0.0069248954951763152 -0.0086575817348251878
leaf_weight=44 62 40 77 143 55 77 93 70
leaf_count=44 62 40 77 143 55 77 93 70
internal_value=0.000877736 -0.00157876 0.00134436 0.00642851 0.01078 -0.00521759 -0.00200969 -0.0140923
internal_weight=661 599 485 275 198 210 170 114
internal_count=661 599 485 275 198 210 170 114
is_linear=0
shrinkage=0.02


Tree=10
num_leaves=11
num_cat=0
split_feature=5 0 17 14 24 14 26 25 15 0
split_gain=120.445 119.364 105.577 29.6436 28.589 20.0766 15.0472 16.3639 12.4811 15.3441
threshold=0.25650000000000006 20.415000000000003 2.8250000000000006 2.2500000000000004 0.44850000000000007 2.0500000000000003 0.80750000000000022 0.51450000000000007 3.5500000000000003 21.435000000000006
decision_type=10 2 10 10 8 10 10 10 8 2
left_child=1 2 4 8 -1 -6 7 -5 9 -3
right_child=-2 3 -4 6 5 -7 -8 -9 -10 -11
leaf_value=0.0041184915134719778 0.028151150451235049 -0.0020154519870560221 -0.016724724940334758 -0.01054168392782626 0.014520781194791197 0.033716995629999372 -0.01315366211131082 0.0040095117350574579 -0.023698861307052316 -0.017242217667057719
leaf_weight=50 52 46 47 45 59 44 55 92 60 75
leaf_count=50 52 46 47 45 59 44 55 92 60 75
internal_value=-0.000657547 -0.00335128 0.00903367 -0.0100519 0.0171335 0.0231588 -0.00439709 -0.000666905 -0.0158833 -0.0116814
internal_weight=625 573 200 373 153 103 192 137 181 121
internal_count=625 573 200 373 153 103 192 137 181 121
is_linear=0
shrinkage=0.02


Tree=11
num_leaves=11
num_cat=0
split_feature=3 6 26 25 22 17 7 7 13 13
split_gain=61.3937 38.4429 35.6648 34.4789 33.8709 29.0362 24.4825 19.2854 18.1665 15.001
threshold=0.096500000000000016 0.6150000000000001 0.6775000000000001 0.51450000000000007 3.6500000000000008 2.6950000000000007 0.31550000000000006 0.37750000000000006 0.60850000000000015 0.57450000000000012
decision_type=10 8 10 8 10 10 8 8 10 10
left_child=1 4 -2 6 9 -6 -3 -5 -9 -1
right_child=2 3 -4 7 5 -7 -8 8 -10 -11
leaf_value=-0.01026609828074773 0 0.0010578898198547817 0.022307761538487215 0.013407014795144398 0.0053220344826147179 -0.014160353839742366 -0.019741596279908784 -0.0041997754007267454 0.010735020135738411 -0.028095886872874367
leaf_weight=44 49 41 64 74 68 53 45 95 48 44
leaf_count=44 49 41 64 74 68 53 45 95 48 44
internal_value=-0.00064436 -0.00362387 0.0125937 0.000870663 -0.0102082 -0.00309376 -0.00969749 0.00517598 0.00071415 -0.0196212
internal_weight=625 512 113 303 209 121 86 217 143 88
internal_count=625 512 113 303 209 121 86 217 143 88
is_linear=0
shrinkage=0.02


Tree=12
num_leaves=10
num_cat=0
split_feature=5 0 17 1 1 5 15 24 29
split_gain=114.008 114.52 100.501 35.3088 33.3634 19.8472 12.0773 12.4234 5.4393
threshold=0.25650000000000006 20.415000000000003 2.8250000000000006 1.3500000000000003 1.3500000000000003 0.18250000000000002 3.5500000000000003 0.50050000000000006 37.750000000000007
decision_type=10 2 10 10 8 8 8 10 8
left_child=1 2 4 6 -1 -5 7 -3 -7
right_child=-2 3 -4 5 -6 8 -8 -9 -10
leaf_value=0.0066264185229937232 0.027395358682892348 -0.016326292253438839 -0.016249904980262121 -0.013832847855630374 0.025839527161093431 0.0080781724667403753 -0.023933313253755664 -0.0047861774479025518 -0.00093086948591297963
leaf_weight=74 52 106 47 41 79 40 50 68 68
leaf_count=74 52 106 47 41 79 40 50 68 68
internal_value=-0.000632046 -0.00325368 0.00887636 -0.00981755 0.0167802 -0.00209336 -0.0148345 -0.0119838 0.00226583
internal_weight=625 573 200 373 153 149 224 174 108
internal_count=625 573 200 373 153 149 224 174 108
is_linear=0
shrinkage=0.02


Tree=13
num_leaves=10
num_cat=0
split_feature=5 1 17 15 13 24 37 4 20
split_gain=109.59 70.5766 35.8327 26.0148 16.9476 16.2658 12.9315 9.35043 9.29997
threshold=0.25650000000000006 1.4500000000000002 3.3050000000000002 3.7500000000000004 0.63350000000000006 0.44950000000000007 33.500000000000007 0.076500000000000012 6.5500000000000007
decision_type=10 8 8 8 10 10 10 10 10
left_child=1 4 -3 5 6 -4 8 -8 -1
right_child=-2 2 3 -5 -6 -7 7 -9 -10
leaf_value=-0.010935153603857876 0.02685778925863077 -0.010300453667011527 0.002980671666744279 -0.002221060171723366 0.0023661427895228068 0.019048868344889749 0.00096483308255024573 -0.0093421398864632493 -0.022975263900083042
leaf_weight=97 52 44 40 51 44 89 45 118 45
leaf_count=97 52 44 40 51 44 89 45 118 45
internal_value=-0.000620304 -0.00319124 0.0055004 0.0095089 -0.00882675 0.0142816 -0.0105093 -0.00638617 -0.0150245
internal_weight=625 573 224 180 349 129 305 163 142
internal_count=625 573 224 180 349 129 305 163 142
is_linear=0
shrinkage=0.02


Tree=14
num_leaves=10
num_cat=0
split_feature=5 0 17 1 1 0 6 6 27
split_gain=105.331 109.692 95.7012 32.5162 30.9259 19.044 14.7903 11.23 6.36391
threshold=0.25650000000000006 20.415000000000003 2.8250000000000006 1.3500000000000003 1.3500000000000003 22.555000000000003 0.70500000000000007 0.65500000000000014 2.8500000000000001
decision_type=10 2 10 10 8 2 8 10 8
left_child=1 2 4 7 -1 6 -5 8 -3
right_child=-2 3 -4 5 -6 -7 -8 -9 -10
leaf_value=0.0066570543011029559 0.026330768435420291 -0.013898163270645254 -0.015771404930079978 -0.0069465424465696987 0.025186654342338445 -0.013266144520179792 0.0081895545625419765 -0.0053856253079496898 -0.02391650035356482
leaf_weight=74 52 126 47 40 79 43 66 51 47
leaf_count=74 52 126 47 40 79 43 66 51 47
internal_value=-0.000607372 -0.00312848 0.00874221 -0.00955329 0.0164559 -0.00213212 0.00227936 -0.0143694 -0.0168567
internal_weight=625 573 200 373 153 149 106 224 173
internal_count=625 573 200 373 153 149 106 224 173
is_linear=0
shrinkage=0.02


Tree=15
num_leaves=8
num_cat=0
split_feature=1 12 10 7 25 35 18
split_gain=75.6054 37.6991 28.4876 22.3612 29.3242 22.4047 11.7167
threshold=1.4500000000000002 83.125000000000014 10.975000000000003 0.26050000000000006 0.51050000000000006 82.125000000000014 106.25000000000001
decision_type=10 2 10 8 8 10 8
left_child=1 3 6 -1 -5 -6 -2
right_child=2 -3 -4 4 5 -7 -8
leaf_value=0.0075557930386343664 -0.0010414529020377134 0.010056826495368716 0.020858259236440066 -0.018391008250988449 0.00036466230015466168 -0.012004096439090022 0.010562102138609083
leaf_weight=42 58 70 79 77 156 90 76
leaf_count=42 58 70 79 77 156 90 76
internal_value=0.00155595 -0.00318965 0.0113107 -0.00580525 -0.00762228 -0.0041098 0.00542101
internal_weight=648 435 213 365 323 246 134
internal_count=648 435 213 365 323 246 134
is_linear=0
shrinkage=0.02


Tree=16
num_leaves=10
num_cat=0
split_feature=0 2 1 0 4 1 0 8 7
split_gain=106.176 115.249 72.1917 41.2634 58.7291 22.7897 21.0583 15.9356 12.6375
threshold=20.305000000000003 20.350000000000005 1.4500000000000002 22.515000000000004 0.14950000000000002 1.8500000000000003 20.795000000000005 1.0650000000000002 0.35850000000000004
decision_type=2 8 10 2 10 10 2 10 8
left_child=1 -1 8 4 5 6 -2 -5 -3
right_child=3 2 -4 7 -6 -7 -8 -9 -10
leaf_value=-0.0092284950224252853 -0.018546783867478371 0.02133756072056003 0.042382133588567371 -0.021803992000424259 0.018595333095226024 0.0081761863566142453 -0.0034863496982883773 -0.0062446118821784602 0.0062382957641966639
leaf_weight=64 49 40 49 58 53 46 168 58 63
leaf_count=64 49 40 49 58 53 46 168 58 63
internal_value=0.001526 0.0129647 0.0224392 -0.00416391 -0.000341021 -0.00428883 -0.00704831 -0.0143151 0.0124432
internal_weight=648 216 152 432 316 263 217 116 103
internal_count=648 216 152 432 316 263 217 116 103
is_linear=0
shrinkage=0.02


Tree=17
num_leaves=12
num_cat=0
split_feature=0 1 0 11 25 6 1 20 8 25 16
split_gain=102.089 56.7388 39.6783 35.0781 33.9619 28.7087 27.4943 23.5961 15.2875 12.0466 11.7058
threshold=20.305000000000003 1.4500000000000002 22.515000000000004 0.50150000000000017 0.5485000000000001 0.47500000000000003 1.7500000000000002 6.2500000000000009 1.0650000000000002 0.51050000000000006 7.4500000000000011
decision_type=2 10 2 8 10 8 10 10 10 10 8
left_child=1 3 4 10 6 -6 9 -7 -4 -2 -1
right_child=2 -3 8 -5 5 7 -8 -9 -10 -11 -12
leaf_value=-0.0092336621935047766 -0.016956539988990812 0.028444779148468605 -0.021375303385873973 0.019375640259069557 -0.0043280394547260724 0.0027945529079685611 0.007952449737294089 0.024586041136221454 -0.0061218365250250038 -0.004623880302887174 0.0044476976730520763
leaf_weight=40 62 64 58 50 51 41 41 43 58 78 62
leaf_count=40 62 64 58 50 51 41 41 43 58 78 62
internal_value=0.00149602 0.0127129 -0.00408263 0.00581557 -0.000332639 0.00716249 -0.00604146 0.014343 -0.014037 -0.0103089 -0.000760924
internal_weight=648 216 432 152 316 135 181 84 116 140 102
internal_count=648 216 432 152 316 135 181 84 116 140 102
is_linear=0
shrinkage=0.02


Tree=18
num_leaves=10
num_cat=0
split_feature=1 2 10 13 7 37 27 11 14
split_gain=68.1095 47.4849 44.2071 39.8416 30.3449 22.467 20.931 17.7652 7.51135
threshold=1.4500000000000002 21.730000000000004 10.975000000000003 0.62350000000000005 0.26050000000000006 36.500000000000007 2.5500000000000003 0.29550000000000004 1.5500000000000003
decision_type=10 8 10 8 8 10 10 10 10
left_child=3 -2 6 4 -1 8 -3 -5 -6
right_child=1 2 -4 7 5 -7 -8 -9 -10
leaf_value=0.0078316249666006664 -0.0070969388407209648 -0.0026071860310104156 0.02938412430119838 -0.0025900175708990832 -0.018423207376096675 0.0020809837532978432 0.01487244835152076 0.012275206839235931 -0.0095141314428781164
leaf_weight=45 45 44 60 51 66 50 64 77 146
leaf_count=45 45 44 60 51 66 50 64 77 146
internal_value=0.00146625 0.010726 0.0156321 -0.00303615 -0.00696931 -0.00960761 0.00760904 0.00622314 -0.0124551
internal_weight=648 213 168 435 307 262 108 128 212
internal_count=648 213 168 435 307 262 108 128 212
is_linear=0
shrinkage=0.02


Tree=19
num_leaves=8
num_cat=0
split_feature=3 2 6 11 20 20 7
split_gain=64.149 35.1782 26.8539 30.1886 20.331 15.8163 9.86081
threshold=0.10850000000000001 18.750000000000004 0.43500000000000005 0.57350000000000001 6.2500000000000009 5.2500000000000009 0.36450000000000005
decision_type=10 8 8 10 10 8 10
left_child=1 -1 4 5 -3 -4 -6
right_child=-2 2 3 -5 6 -7 -8
leaf_value=-0.013137732956630106 0.020456899536657146 0.0045594293050749534 0.011676115744880268 0.020265042314692061 -0.01811427033677393 0 -0.0038301234437925057
leaf_weight=77 63 42 55 40 48 283 40
leaf_count=77 63 42 55 40 48 283 40
internal_value=0.00143712 -0.000608452 0.00127346 0.00400203 -0.0064777 0.00196431 -0.0119622
internal_weight=648 585 508 378 130 338 88
internal_count=648 585 508 378 130 338 88
is_linear=0
shrinkage=0.02


Tree=20
num_leaves=10
num_cat=0
split_feature=1 2 13 26 29 7 37 7 17
split_gain=94.2532 49.1859 47.8905 32.2253 26.298 23.8938 18.0424 14.6283 10.3878
threshold=1.4500000000000002 20.930000000000003 0.62350000000000005 0.6625000000000002 30.750000000000004 0.29450000000000004 34.500000000000007 0.35650000000000004 2.77
decision_type=8 8 10 10 10 8 10 8 10
left_child=2 -2 5 -3 -5 -1 7 -7 -8
right_child=1 3 -4 4 -6 6 8 -9 -10
leaf_value=0.00092829907186595454 -0.0097135639336051009 0.0015845491352032813 0.008263314383534285 0.0095468234632696426 0.027312259819501868 -0.0073076962885704443 -0.00026153034115066896 -0.022329328905133641 -0.012911273335727554
leaf_weight=69 40 62 77 69 77 46 64 84 47
leaf_count=69 40 62 77 69 77 46 64 84 47
internal_value=0.000489825 0.0101213 -0.00564092 0.0140596 0.0191744 -0.00917432 -0.0121413 -0.017263 -0.00586376
internal_weight=635 248 387 208 146 310 241 130 111
internal_count=635 248 387 208 146 310 241 130 111
is_linear=0
shrinkage=0.02


Tree=21
num_leaves=12
num_cat=0
split_feature=1 13 0 16 3 0 16 8 4 0 36
split_gain=90.6 46.0447 45.234 39.5493 48.607 24.5722 28.643 20.1568 14.1026 7.93838 1.97379
threshold=1.4500000000000002 0.62350000000000005 22.525000000000002 9.0500000000000025 0.048500000000000008 21.155000000000005 6.1500000000000012 1.0850000000000002 0.13050000000000003 20.180000000000003 0.33750000000000008
decision_type=8 10 2 8 10 2 8 10 8 2 10
left_child=1 5 3 -2 9 6 -1 10 -8 -5 -7
right_child=2 -3 -4 4 -6 7 8 -9 -10 -11 -12
leaf_value=-0.015579479950315811 -0.0018225975790802313 0.0081001670983357303 -0.0090852368005165246 0.013358355146355746 0.029618309186538683 -0.016019745432749026 0.010134829266641577 -0.006522204064059298 -0.0042033138299094781 0.0003671326612432798 -0.026081121606486186
leaf_weight=50 48 77 40 40 79 40 51 73 55 41 41
leaf_count=50 48 77 40 40 79 40 51 73 55 41 41
internal_value=0.000479246 -0.00553086 0.00992279 0.0136999 0.0184632 -0.0089961 -0.00320336 -0.0146765 0.00253856 0.00711112 -0.0216124
internal_weight=635 387 248 208 160 310 156 154 106 81 81
internal_count=635 387 248 208 160 310 156 154 106 81 81
is_linear=0
shrinkage=0.02


Tree=22
num_leaves=12
num_cat=0
split_feature=1 12 2 0 7 1 25 0 0 0 36
split_gain=87.0963 52.6289 46.5803 51.2425 25.9765 23.4996 19.0162 18.9184 17.8768 9.38135 6.22057
threshold=1.4500000000000002 83.125000000000014 20.930000000000003 20.415000000000003 0.33400000000000007 0.95000000000000007 0.52450000000000008 21.835000000000004 22.005000000000006 21.175000000000004 0.34850000000000003
decision_type=8 2 8 2 10 10 10 2 2 2 10
left_child=1 5 -2 -4 -5 9 10 -8 -6 -1 -7
right_child=2 -3 3 4 8 6 7 -9 -10 -11 -12
leaf_value=-0.0085874877255736736 -0.0095684714070180567 0.012396194165838616 0.027028375225695404 -0.0064464768504893235 0.020576866582656898 -0.0050797902668515841 0.0083623751840787002 -0.0069911282451357694 0.0023950231658375781 -0.020810130468722599 -0.017038376372815533
leaf_weight=56 40 55 73 43 47 41 63 63 45 66 43
leaf_count=56 40 55 73 43 47 41 63 63 45 66 43
internal_value=0.000467216 -0.00542489 0.00972694 0.0135613 0.00598688 -0.0084656 -0.00424303 0.000533542 0.01202 -0.0154778 -0.0115652
internal_weight=635 387 248 208 135 332 210 126 92 122 84
internal_count=635 387 248 208 135 332 210 126 92 122 84
is_linear=0
shrinkage=0.02


Tree=23
num_leaves=11
num_cat=0
split_feature=1 2 18 26 29 5 11 32 26 25
split_gain=83.724 44.7967 31.1871 30.6932 25.1692 18.9324 16.9772 12.4045 5.27567 3.40228
threshold=1.4500000000000002 20.930000000000003 109.75000000000001 0.6625000000000002 30.750000000000004 0.19950000000000004 0.50650000000000006 2.1500000000000008 0.75650000000000006 0.55550000000000022
decision_type=8 8 8 10 10 10 10 10 10 10
left_child=2 -2 6 -3 -5 9 7 8 -1 -4
right_child=1 3 5 4 -6 -7 -8 -9 -10 -11
leaf_value=-0.0096653428507180745 -0.0093817694303466054 0.0011280704691769585 -0.007020246571172839 0.008874476762222392 0.02623869701503561 0.012012727976429697 0.00093149895158906775 -0.0050341939313435233 -0.019419562665722038 0.000490377586157549
leaf_weight=51 40 62 45 69 77 50 47 75 78 41
leaf_count=51 40 62 45 69 77 50 47 75 78 41
internal_value=0.000455867 0.00953513 -0.0053204 0.0132962 0.0182846 0.00226506 -0.0095025 -0.0119968 -0.0158211 -0.00324524
internal_weight=635 248 387 208 146 136 251 204 129 86
internal_count=635 248 387 208 146 136 251 204 129 86
is_linear=0
shrinkage=0.02


Tree=24
num_leaves=11
num_cat=0
split_feature=1 12 22 26 4 1 24 23 24 29
split_gain=80.4668 49.5445 27.196 26.9946 28.4702 22.4457 26.6282 14.8776 13.484 6.80033
threshold=1.4500000000000002 83.125000000000014 4.7500000000000009 0.6625000000000002 0.13450000000000004 0.95000000000000007 0.50650000000000006 16.650000000000002 0.47150000000000003 30.750000000000004
decision_type=8 2 8 10 8 10 10 10 10 10
left_child=1 5 -2 -4 -5 9 7 -7 -6 -1
right_child=2 -3 3 4 8 6 -8 -9 -10 -11
leaf_value=-0.0084530060996229825 -0.0053048263817298703 0.012071745834712471 0.00045274982725580532 0.028655501684104957 0.00055763794109225278 -0.00051962723800291625 0.0067114173235290403 -0.013820382677018643 0.016200266304825035 -0.019275733704885677
leaf_weight=51 40 55 59 53 41 59 62 89 55 71
leaf_count=51 40 55 59 53 41 59 62 89 55 71
internal_value=0.000446723 -0.00521542 0.00934819 0.0122737 0.0167869 -0.00816697 -0.00403883 -0.00869136 0.00980037 -0.0150196
internal_weight=635 387 248 208 149 332 210 148 96 122
internal_count=635 387 248 208 149 332 210 148 96 122
is_linear=0
shrinkage=0.02


Tree=25
num_leaves=13
num_cat=0
split_feature=0 1 2 4 3 24 17 37 24 3 32 10
split_gain=88.0999 67.034 63.3814 33.8919 23.6017 24.7317 24.1785 16.0172 15.3309 15.5448 6.62646 2.58251
threshold=21.265000000000004 1.5500000000000003 25.150000000000002 0.13450000000000004 0.038500000000000006 0.50250000000000006 2.8050000000000002 33.500000000000007 0.46250000000000008 0.10750000000000001 2.0500000000000003 10.875000000000002
decision_type=2 10 8 8 10 8 10 10 10 8 10 10
left_child=1 4 -3 10 5 -1 7 -6 -5 -10 11 -2
right_child=3 2 -4 8 6 -7 -8 -9 9 -11 -12 -13
leaf_value=-0.017448011076320772 -0.023728983435957206 0.0014118185497465588 0.034961845582282103 -0.01166921924713046 0.002158978594110367 0.0023654542624388102 -0.0049623915853576278 0.018630558739236573 -0.0038019415850822744 0.011185937739433128 -0.0097388574168891517 -0.013551318122119438
leaf_weight=45 41 41 53 42 46 52 52 56 64 46 73 40
leaf_count=45 41 41 53 42 46 52 52 56 64 46 73 40
internal_value=-0.000499473 0.00638845 0.0207077 -0.00832593 0.000885586 -0.00670652 0.00580908 0.0114895 -0.00145859 0.00232985 -0.0149219 -0.0191734
internal_weight=651 345 94 306 251 97 154 102 152 110 154 81
internal_count=651 345 94 306 251 97 154 102 152 110 154 81
is_linear=0
shrinkage=0.02


Tree=26
num_leaves=12
num_cat=0
split_feature=0 1 22 5 5 36 14 8 7 33 5
split_gain=84.7496 64.4457 41.8905 31.2721 24.2024 27.2636 19.8186 17.5475 17.0982 9.45258 13.1551
threshold=21.265000000000004 1.5500000000000003 7.9500000000000011 0.25950000000000006 0.10350000000000001 0.33150000000000007 2.2500000000000004 0.81500000000000006 0.36450000000000005 26.250000000000004 0.18150000000000002
decision_type=2 10 8 8 10 10 10 10 8 10 10
left_child=1 4 -3 7 5 -1 -5 -2 -6 10 -9
right_child=3 2 -4 6 8 -7 -8 9 -10 -11 -12
leaf_value=0.0033565185452793162 -0.021139294388202518 0.0050146493993022227 0.03246873492231736 -0.0071824435856607232 0.012422608091154053 -0.017211461196094752 0.011716019993777884 -0.012082547091919443 -0.00071035005251566575 -0.014809824979767716 0.0022014001495289531
leaf_weight=50 64 43 51 44 78 49 42 45 74 57 54
leaf_count=50 64 43 51 44 78 49 42 45 74 57 54
internal_value=-0.000489919 0.00626514 0.0203055 -0.00816666 0.000867933 -0.00669391 0.00184573 -0.0121617 0.00593536 -0.00824006 -0.0041472
internal_weight=651 345 94 306 251 99 86 220 152 156 99
internal_count=651 345 94 306 251 99 86 220 152 156 99
is_linear=0
shrinkage=0.02


Tree=27
num_leaves=13
num_cat=0
split_feature=0 1 2 8 3 3 17 36 7 16 33 17
split_gain=81.4773 61.9722 59.3994 24.1198 28.9345 21.9499 23.037 22.1417 18.5606 9.88403 6.44157 6.19903
threshold=21.265000000000004 1.5500000000000003 25.150000000000002 0.81500000000000006 0.10650000000000001 0.038500000000000006 2.8050000000000002 0.33150000000000007 0.35750000000000004 9.7500000000000018 28.850000000000005 2.8250000000000006
decision_type=2 10 8 10 8 10 10 10 8 10 8 10
left_child=1 5 -3 10 9 7 8 -1 -7 11 -2 -5
right_child=3 2 -4 4 -6 6 -8 -9 -10 -11 -12 -13
leaf_value=0.0022742746283228583 -0.02060925418386857 0.0012209825146765937 0.033709385407467686 -0.015584011554718018 0.0089992619419867609 0.018803768178872894 -0.0049091482337537875 -0.016431314707436459 0.0011974791627615057 0 -0.0087647393274874925 -0.0051275703934382426
leaf_weight=51 59 41 53 64 50 56 52 46 46 44 41 48
leaf_count=51 59 41 53 64 50 56 52 46 46 44 41 48
internal_value=-0.00047969 0.00614303 0.0199115 -0.00800732 -0.00393031 0.000848817 0.00559943 -0.00646948 0.0111466 -0.00823271 -0.0160859 -0.0113647
internal_weight=651 345 94 306 206 251 154 97 102 156 100 112
internal_count=651 345 94 306 206 251 154 97 102 156 100 112
is_linear=0
shrinkage=0.02


Tree=28
num_leaves=7
num_cat=0
split_feature=3 8 11 7 31 8
split_gain=52.2689 33.2279 30.3684 15.2263 18.5729 16.2774
threshold=0.11350000000000002 0.49500000000000005 0.50450000000000006 0.36050000000000004 2.6500000000000008 1.5550000000000004
decision_type=10 8 10 8 10 8
left_child=1 -1 3 4 -3 -5
right_child=-2 2 -4 5 -6 -7
leaf_value=-0.015479263186906322 0.019808953651722441 0.01229948095064245 0.011462435495309732 -0.0096479556227643658 -0.0016513286454743412 4.428863400170783e-05
leaf_weight=65 46 50 73 154 145 118
leaf_count=65 46 50 73 154 145 118
internal_value=-0.000469898 -0.00207491 -0.000398823 -0.0023162 0.00186826 -0.00538521
internal_weight=651 605 540 467 195 272
internal_count=651 605 540 467 195 272
is_linear=0
shrinkage=0.02


Tree=29
num_leaves=11
num_cat=0
split_feature=1 17 14 22 5 4 24 9 4 8
split_gain=59.3662 37.8551 43.9904 31.8779 19.2242 13.0565 14.2636 17.2001 12.1149 9.68939
threshold=1.4500000000000002 3.3400000000000003 2.7500000000000004 8.4500000000000011 0.21700000000000003 0.07350000000000001 0.50250000000000006 102.85000000000001 0.14950000000000002 0.69500000000000006
decision_type=10 8 10 8 10 8 8 8 8 10
left_child=4 -2 -3 -4 5 -1 7 -7 -8 -6
right_child=1 2 3 -5 9 6 8 -9 -10 -11
leaf_value=0.0024657729005783187 -0.0070355639457702632 0 0.0059776327268379493 0.029716056854286719 -0.0026005158443813737 -0.0047785421945632268 -0.010021317400808992 -0.01802285090324126 0.0020729835637628216 0.010381174957336382
leaf_weight=48 49 65 40 62 45 77 57 94 72 42
leaf_count=48 49 65 40 62 45 77 57 94 72 42
internal_value=-0.000458757 0.00805579 0.0126184 0.0207495 -0.00474132 -0.00685955 -0.00842128 -0.0122378 -0.00315314 0.00348599
internal_weight=651 216 167 102 435 348 300 171 129 87
internal_count=651 216 167 102 435 348 300 171 129 87
is_linear=0
shrinkage=0.02


Tree=30
num_leaves=9
num_cat=0
split_feature=37 22 17 3 36 28 3 28
split_gain=49.4115 28.4485 27.0059 26.4907 25.2848 22.0948 16.8408 12.8737
threshold=36.500000000000007 7.8500000000000005 2.8250000000000006 0.060500000000000005 0.31650000000000006 0.0075000000000000006 0.12350000000000001 0.16400000000000003
decision_type=8 10 10 10 10 10 8 10
left_child=1 4 3 -2 5 -1 7 -6
right_child=2 -3 -4 -5 6 -7 -8 -9
leaf_value=-0.0053844729336825284 0.0067312175426632176 0.012197756162140428 -0.0044471199916941775 0.027183384513709604 -0.018441551086577503 0.014365437257621023 0.0014828894531993726 -0.0072856506100296972
leaf_weight=43 79 40 41 40 54 44 66 249
leaf_count=43 79 40 41 40 54 44 66 249
internal_value=-0.00048778 -0.00363523 0.00910706 0.0139418 -0.0050915 0.00442645 -0.00739553 -0.00939374
internal_weight=656 496 160 119 456 87 369 303
internal_count=656 496 160 119 456 87 369 303
is_linear=0
shrinkage=0.02


Tree=31
num_leaves=11
num_cat=0
split_feature=0 2 0 14 33 0 30 14 2 0
split_gain=72.7402 79.2116 32.4901 18.3427 23.2971 16.6514 12.015 20.02 10.9489 3.8134
threshold=21.355000000000004 19.335000000000004 20.255000000000006 2.0500000000000003 26.050000000000004 20.965000000000003 4.0500000000000007 2.0500000000000003 23.450000000000003 22.515000000000004
decision_type=2 8 2 10 10 2 10 10 8 2
left_child=1 -1 6 9 8 -4 -3 -8 -5 -2
right_child=3 2 5 4 -6 -7 7 -9 -10 -11
leaf_value=-0.012786311001793758 -0.010145437911980682 0.0089345009195985221 -0.0033526485701402026 -0.0059634597963756988 -0.012587534962097803 0.011268169944389507 0.011876794735866565 0.031559354099769926 0.0064876379634011281 -0.019385818136816328
leaf_weight=73 62 65 74 44 74 51 53 42 72 46
leaf_count=73 62 65 74 44 74 51 53 42 72 46
internal_value=-0.000476003 0.00556096 0.0103586 -0.0077897 -0.00386818 0.002496 0.0163235 0.021025 0.00158326 -0.0144064
internal_weight=656 358 285 298 190 125 160 95 116 108
internal_count=656 358 285 298 190 125 160 95 116 108
is_linear=0
shrinkage=0.02


Tree=32
num_leaves=12
num_cat=0
split_feature=0 22 17 0 12 19 22 12 17 3 19
split_gain=69.9591 59.0699 22.7654 28.7278 20.0163 17.3127 23.4244 16.4175 14.5977 22.037 8.0082
threshold=21.355000000000004 4.7500000000000009 2.8050000000000002 20.255000000000006 79.625000000000014 2.6500000000000008 7.1500000000000012 81.875000000000014 2.9750000000000005 0.11550000000000002 3.7500000000000004
decision_type=2 8 10 2 2 8 10 2 10 8 8
left_child=1 4 3 7 -1 -2 8 -3 9 -7 -5
right_child=5 2 -4 10 -6 6 -8 -9 -10 -11 -12
leaf_value=-0.01491330647503893 0.0019562942508993477 0.013224805239829924 -0.0012557532319000789 -0.0017820168009382627 0.002104227440059185 -0.021208201841834712 0.0035290022298875381 0.02939854965234796 -0.0013669069910921703 -0.0052957895837846347 0.0103537625001698
leaf_weight=57 57 76 48 41 49 101 40 47 40 60 40
leaf_count=57 57 76 48 41 49 101 40 47 40 60 40
internal_value=-0.000466303 0.0054535 0.0107414 0.0136541 -0.00691365 -0.00763936 -0.00999022 0.0197536 -0.0127838 -0.0154709 0.00402024
internal_weight=656 358 252 204 106 298 241 123 201 161 81
internal_count=656 358 252 204 106 298 241 123 201 161 81
is_linear=0
shrinkage=0.02


Tree=33
num_leaves=11
num_cat=0
split_feature=37 5 35 1 14 21 34 16 16 5
split_gain=45.5567 28.0798 21.6988 21.3779 18.8857 15.799 13.0069 12.3114 9.35404 8.78326
threshold=36.500000000000007 0.18350000000000002 86.375000000000014 1.4500000000000002 1.9500000000000002 205.50000000000003 9.2500000000000018 9.7500000000000018 6.0500000000000007 0.20150000000000004
decision_type=8 8 8 10 10 2 10 10 10 10
left_child=1 2 8 5 6 -2 -3 9 -1 -6
right_child=3 4 -4 -5 7 -7 -8 -9 -10 -11
leaf_value=-0.018322417606133967 -0.0056670317417237817 -0.012541946957721132 0.00055393203209012237 0.021158128253051214 0.0053758556809276352 0.0094172977674752481 0 0.012875752678284278 -0.0068505661012762684 -0.005585276893478759
leaf_weight=79 40 56 58 41 74 79 74 51 58 46
leaf_count=79 40 56 58 41 74 79 74 51 58 46
internal_value=-0.000455919 -0.00347931 -0.00937395 0.00875576 0.000291652 0.0041753 -0.00535986 0.00471058 -0.0136955 0.000997365
internal_weight=656 496 195 160 301 119 130 171 137 120
internal_count=656 496 195 160 301 119 130 171 137 120
is_linear=0
shrinkage=0.02


Tree=34
num_leaves=9
num_cat=0
split_feature=5 6 3 15 21 32 10 11
split_gain=41.2288 35.859 19.746 13.8418 14.041 10.8418 15.0599 13.8153
threshold=0.17850000000000002 0.30500000000000005 0.094500000000000015 3.4500000000000006 234.50000000000003 1.8500000000000003 10.885000000000003 0.33750000000000008
decision_type=8 8 10 10 2 10 10 10
left_child=5 -2 3 4 -3 6 -1 -7
right_child=1 2 -4 -5 -6 7 -8 -9
leaf_value=-0.003566966623067856 -0.012412997669091931 0.0027385814503104976 0.014282890093084928 -0.0048703707837537951 0.015594925131826174 -0.011317905841804133 -0.01919783295939366 0.0042011838048696525
leaf_weight=49 53 220 73 72 41 40 59 49
leaf_count=49 53 220 73 72 41 40 59 49
internal_value=-0.000445791 0.00280719 0.00486882 0.00270861 0.00488631 -0.00810199 -0.0123873 -0.00259972
internal_weight=656 459 406 333 261 197 108 89
internal_count=656 459 406 333 261 197 108 89
is_linear=0
shrinkage=0.02


Tree=35
num_leaves=8
num_cat=0
split_feature=0 1 5 13 0 32 5
split_gain=49.0051 42.7353 41.5726 18.0704 21.7916 11.8005 10.7058
threshold=22.515000000000004 2.0500000000000003 0.25650000000000006 0.62350000000000005 19.165000000000003 2.3500000000000001 0.18050000000000002
decision_type=2 10 10 10 2 10 10
left_child=1 2 3 4 -1 6 -2
right_child=5 -3 -4 -5 -6 -7 -8
leaf_value=0.0090327370608294464 -0.022936751088570979 0.020171627232841417 0.018699445504536654 0.010372428645690282 -0.004612462786773657 -0.0019741190936077724 -0.0074021351597336835
leaf_weight=53 41 50 46 47 323 43 42
leaf_count=53 41 50 46 47 323 43 42
internal_value=1.60012e-05 0.00276699 0.000829958 -0.00110565 -0.00261716 -0.0110905 -0.0154957
internal_weight=645 519 469 423 376 126 83
internal_count=645 519 469 423 376 126 83
is_linear=0
shrinkage=0.02


Tree=36
num_leaves=12
num_cat=0
split_feature=9 1 13 14 21 7 10 10 19 37 23
split_gain=36.5385 38.6089 40.2664 19.583 25.4214 18.6015 15.3117 12.6411 9.81613 8.17842 5.66517
threshold=102.75000000000001 1.3500000000000003 0.58350000000000002 1.7500000000000002 208.50000000000003 0.31300000000000006 10.865 11.535000000000002 3.9500000000000006 32.500000000000007 17.550000000000004
decision_type=10 10 10 8 2 10 10 8 8 10 10
left_child=1 3 7 9 8 -6 -4 -3 -5 -1 -2
right_child=10 2 6 4 5 -7 -8 -9 -10 -11 -12
leaf_value=-0.014214509409247785 -0.017332438919279311 0.0083944870190600217 0.0087475100813842396 0 0.015056427930344323 0 0.026821457810389498 -0.0038429920423727532 -0.01374705342359321 -0.0035683096428712206 -0.005727586887731422
leaf_weight=56 44 58 40 40 60 68 47 76 42 74 40
leaf_count=56 44 58 40 40 60 68 47 76 42 74 40
internal_value=1.57229e-05 0.00189492 0.00840289 -0.00228884 0.00140927 0.00703691 0.0189327 0.00132862 -0.00711333 -0.00838054 -0.012174
internal_weight=645 561 221 340 210 128 87 134 82 130 84
internal_count=645 561 221 340 210 128 87 134 82 130 84
is_linear=0
shrinkage=0.02


Tree=37
num_leaves=10
num_cat=0
split_feature=0 5 32 0 14 8 32 5 21
split_gain=47.2548 37.5179 22.8217 28.2005 33.3556 22.2835 11.3366 10.0582 8.83081
threshold=22.515000000000004 0.25650000000000006 1.9500000000000002 20.255000000000006 1.7500000000000002 0.80500000000000016 2.3500000000000001 0.18050000000000002 206.50000000000003
decision_type=2 10 8 2 10 10 10 10 2
left_child=1 2 8 4 -4 -5 7 -2 -1
right_child=6 -3 3 5 -6 -7 -8 -9 -10
leaf_value=-0.014855966060314068 -0.022439116777053902 0.019026679683399078 0 -0.0097213237041917939 0.018124098008764643 0.0032142842831936751 -0.001945483140986074 -0.0073328779611823167 -0.0013343259809148866
leaf_weight=42 41 50 77 83 83 142 43 42 42
leaf_count=42 41 50 77 83 83 142 43 42 42
internal_value=1.32607e-05 0.00271524 0.000896944 0.00299934 0.00940804 -0.00149092 -0.0108926 -0.0152114 -0.00842568
internal_weight=645 519 469 385 160 225 126 83 84
internal_count=645 519 469 385 160 225 126 83 84
is_linear=0
shrinkage=0.02


Tree=38
num_leaves=8
num_cat=0
split_feature=0 9 12 0 16 13 5
split_gain=45.4567 41.964 31.2233 26.6967 33.2919 23.6744 8.39967
threshold=22.515000000000004 102.75000000000001 75.125000000000014 20.255000000000006 8.3500000000000032 0.58450000000000013 0.17850000000000002
decision_type=2 10 2 2 8 10 10
left_child=1 2 -1 4 -4 -5 -2
right_child=6 -3 3 5 -6 -7 -8
leaf_value=0.020781237812505828 -0.017223660160659574 -0.011912855695494835 -0.0029983850714883635 -0.0066851517990888926 0.015769001439282108 0.0057352058761459476 -0.0059573823029731776
leaf_weight=44 50 67 55 135 108 110 76
leaf_count=44 50 67 55 135 108 110 76
internal_value=9.74491e-06 0.00266042 0.0048863 0.00307662 0.00933483 -0.00102672 -0.010686
internal_weight=645 519 452 408 163 245 126
internal_count=645 519 452 408 163 245 126
is_linear=0
shrinkage=0.02


Tree=39
num_leaves=10
num_cat=0
split_feature=1 5 32 20 9 14 37 33 24
split_gain=34.4079 32.0512 35.8624 37.6121 18.3913 22.7601 25.7744 12.8994 11.9706
threshold=2.2500000000000004 0.19350000000000003 5.3500000000000005 6.8500000000000005 102.75000000000001 2.2500000000000004 35.500000000000007 26.650000000000002 0.52250000000000008
decision_type=10 10 8 10 10 8 10 10 10
left_child=1 4 7 -4 5 8 -7 -3 -1
right_child=-2 2 3 -5 -6 6 -8 -9 -10
leaf_value=-0.013499571003596342 0.017112098613923245 0.0035684476742193789 0.026031506396830082 0 -0.014096567031442069 -0.0022542604406674701 0.015460938708206941 -0.0084872837808160559 0
leaf_weight=83 43 78 49 42 70 134 42 62 42
leaf_count=83 43 78 49 42 70 134 42 62 42
internal_value=7.61529e-06 -0.00120732 0.0045847 0.0143091 -0.00487006 -0.00261856 0.0019237 -0.001651 -0.00913731
internal_weight=645 602 231 91 371 301 176 140 125
internal_count=645 602 231 91 371 301 176 140 125
is_linear=0
shrinkage=0.02


Tree=40
num_leaves=10
num_cat=0
split_feature=3 2 8 26 16 5 24 2 13
split_gain=47.8759 34.6045 31.5806 22.1623 26.3612 18.9056 17.0726 15.1826 2.49198
threshold=0.10850000000000001 18.750000000000004 1.5150000000000003 0.6925 10.950000000000001 0.13150000000000003 0.50350000000000017 26.950000000000003 0.5415000000000002
decision_type=10 8 8 10 8 10 10 10 10
left_child=1 8 5 -4 -5 6 -3 -7 -1
right_child=-2 2 3 4 -6 7 -8 -9 -10
leaf_value=-0.016935053546395566 0.017461815613011519 -0.0016404110670555382 -0.0016663341645924551 0.0040126318927362278 0.02569469831206582 -0.0077462931647721044 0.014568995415632214 0.0040372290073032932 -0.0080864628349862442
leaf_weight=44 59 63 52 52 43 211 41 52 40
leaf_count=44 59 63 52 52 43 211 41 52 40
internal_value=0.000406805 -0.00126883 0.000647749 0.00847919 0.0142004 -0.00244926 0.00463725 -0.00533425 -0.0131014
internal_weight=657 598 514 147 95 367 104 263 84
internal_count=657 598 514 147 95 367 104 263 84
is_linear=0
shrinkage=0.02


Tree=41
num_leaves=11
num_cat=0
split_feature=0 2 0 15 7 25 14 16 14 7
split_gain=55.5985 71.8207 63.6457 46.4203 27.3128 22.4483 14.5915 12.3809 12.0164 7.30671
threshold=22.515000000000004 21.850000000000005 20.255000000000006 2.8500000000000001 0.37650000000000006 0.51450000000000007 3.3500000000000001 5.8500000000000005 1.9500000000000002 0.32450000000000007
decision_type=2 8 2 8 10 10 10 10 10 8
left_child=1 7 3 -3 5 -4 -6 9 -2 -1
right_child=8 2 4 -5 6 -7 -8 -9 -10 -11
leaf_value=-0.0059847896705780713 -0.02018415145865745 0.035845324408424938 -0.01278887799587743 0.0098552445261739195 0.0032234160760241859 0.0025979836446777833 0.019829500175830794 -0.0014376475231748231 -0.0064561739540364175 -0.018734248399714683
leaf_weight=41 44 45 57 79 52 105 40 70 78 46
leaf_count=41 44 45 57 79 52 105 40 70 78 46
internal_value=0.000398964 0.00321053 0.00795458 0.0196584 0.00210777 -0.00273846 0.0107941 -0.00806294 -0.0116937 -0.0130894
internal_weight=657 535 378 124 254 162 92 157 122 87
internal_count=657 535 378 124 254 162 92 157 122 87
is_linear=0
shrinkage=0.02


Tree=42
num_leaves=12
num_cat=0
split_feature=1 2 0 19 0 10 37 19 0 27 2
split_gain=56.3328 45.5225 60.2495 33.0012 21.3582 14.2749 13.751 18.7429 13.0306 11.9639 9.72226
threshold=1.1500000000000001 18.550000000000004 21.210000000000004 4.3500000000000005 22.115000000000006 11.855000000000002 32.500000000000007 3.6500000000000008 22.485000000000003 2.7500000000000004 26.450000000000003
decision_type=8 8 2 10 2 8 10 10 2 8 8
left_child=4 -2 3 9 6 8 -1 -8 -4 -3 -6
right_child=1 2 5 -5 10 -7 7 -9 -10 -11 -12
leaf_value=-0.0099386216293681755 -0.014150907140831614 0.017019590415030476 0.009264180225113201 0.031284575597806411 -0.0074522166936234991 -0.0072336513745422304 -0.0059973422040541973 0.010259866370063908 -0.0046582368052587274 0.0042209870247718172 -0.022250475324690343
leaf_weight=65 42 61 71 43 43 73 59 52 40 67 41
leaf_count=65 42 61 71 43 43 73 59 52 40 67 41
internal_value=0.000389944 0.00515331 0.0075267 0.0160393 -0.0067986 -0.000320308 -0.00266676 0.00146368 0.00407173 0.01056 -0.0150873
internal_weight=657 397 355 171 260 184 176 111 111 128 84
internal_count=657 397 355 171 260 184 176 111 111 128 84
is_linear=0
shrinkage=0.02


Tree=43
num_leaves=11
num_cat=0
split_feature=0 16 19 14 24 24 14 22 0 10
split_gain=51.6559 46.0809 40.3601 23.7299 16.5468 14.0482 11.386 11.0069 8.05116 8.66578
threshold=22.515000000000004 8.9500000000000011 5.2500000000000009 2.2500000000000004 0.46450000000000008 0.51150000000000018 1.9500000000000002 2.8500000000000001 20.005000000000006 11.455000000000002
decision_type=2 8 10 8 10 10 10 10 2 8
left_child=1 7 3 5 -5 -3 -2 -1 -9 -10
right_child=6 2 -4 4 -6 -7 -8 8 9 -11
leaf_value=-0.013191950373510097 -0.019540028353532156 -0.010777427917346358 0.024201160767674448 0.0040172954921477606 0.016820237575897148 0.0031955007820025734 -0.0061703414093891651 0.0044214493664456352 0.00092816409231586891 -0.01075243962260912
leaf_weight=46 44 47 49 111 69 68 78 50 43 52
leaf_count=46 44 47 49 111 69 68 78 50 43 52
internal_value=0.000380332 0.00309145 0.00747996 0.00456259 0.0091014 -0.00238644 -0.0112745 -0.00470608 -0.00180511 -0.0053025
internal_weight=657 535 344 295 180 115 122 191 145 95
internal_count=657 535 344 295 180 115 122 191 145 95
is_linear=0
shrinkage=0.02


Tree=44
num_leaves=11
num_cat=0
split_feature=0 2 0 11 7 25 6 16 2 7
split_gain=49.6789 65.7924 59.9693 43.8262 25.6086 21.4565 17.2699 11.3645 9.93977 7.12507
threshold=22.515000000000004 21.850000000000005 20.255000000000006 0.34850000000000003 0.37650000000000006 0.51450000000000007 0.7350000000000001 5.8500000000000005 26.450000000000003 0.32450000000000007
decision_type=2 8 2 10 10 10 8 10 8 8
left_child=1 7 3 -3 5 -4 -6 9 -2 -1
right_child=8 2 4 -5 6 -7 -8 -9 -10 -11
leaf_value=-0.0055742976779029488 -0.0047599995973888008 0.0064635404684240862 -0.012617289670582475 0.030785624241781613 0.00091574406089342162 0.0024201027737965563 0.01868540619344761 -0.0013936220329832023 -0.016851892411228149 -0.018134631847447538
leaf_weight=41 61 62 57 62 45 105 47 70 61 46
leaf_count=41 61 62 57 62 45 105 47 70 61 46
internal_value=0.000372518 0.00303182 0.00757374 0.0189336 0.00189707 -0.00279308 0.0103121 -0.00775567 -0.0110564 -0.0125733
internal_weight=657 535 378 124 254 162 92 157 122 87
internal_count=657 535 378 124 254 162 92 157 122 87
is_linear=0
shrinkage=0.02


Tree=45
num_leaves=11
num_cat=0
split_feature=1 30 24 4 37 37 1 3 4 7
split_gain=65.163 52.5254 29.1288 30.5975 23.2066 15.4205 14.8331 28.447 11.6738 8.04671
threshold=1.3500000000000003 6.2500000000000009 0.50450000000000006 0.14150000000000001 35.500000000000007 34.500000000000007 2.2500000000000004 0.075500000000000012 0.11250000000000002 0.33950000000000008
decision_type=8 10 10 8 10 10 8 8 10 8
left_child=2 4 5 -4 6 9 7 -2 -7 -1
right_child=1 -3 3 -5 -6 8 -8 -9 -10 -11
leaf_value=-0.007785287354080404 0.005833193421220551 0.023104643178158909 -0.0063297665647192233 0.012512208238125794 0.014497892982153981 0.0041857388599051372 0.0071722364798188212 -0.014072642064157632 -0.010409092756851417 -0.018809588412621193
leaf_weight=60 51 68 74 62 53 44 63 61 40 69
leaf_count=60 51 68 74 62 53 44 63 61 40 69
internal_value=0.000852168 0.00776752 -0.00496129 0.0021426 0.00302503 -0.00957938 -0.000398606 -0.00485998 -0.00256958 -0.0139352
internal_weight=645 296 349 136 228 213 175 112 84 129
internal_count=645 296 349 136 228 213 175 112 84 129
is_linear=0
shrinkage=0.02


Tree=46
num_leaves=10
num_cat=0
split_feature=0 5 1 35 37 37 37 33 10
split_gain=79.6531 89.8172 34.8776 27.7584 24.9242 24.8819 21.9875 13.0434 4.84623
threshold=22.195000000000004 0.25050000000000006 1.5500000000000003 87.375000000000014 32.500000000000007 27.500000000000004 36.500000000000007 22.150000000000002 11.905000000000003
decision_type=2 10 10 8 10 10 8 10 8
left_child=1 2 3 6 -4 -5 -1 -2 -9
right_child=7 -3 4 5 -6 -7 -8 8 -10
leaf_value=-0.0090798056870956528 -0.0031572079264913645 0.031637413547090862 0.0025844121769327544 -0.002993325729261745 0.022442610684037207 0.015142943989485503 0.005938987535610795 -0.010775168385070104 -0.021115934937152754
leaf_weight=160 62 45 57 54 49 63 49 64 42
leaf_count=160 62 45 57 54 49 63 49 64 42
internal_value=0.000835431 0.00503549 0.0021516 -0.00104093 0.012075 0.00664844 -0.0054519 -0.0109306 -0.0152184
internal_weight=645 477 432 326 106 117 209 168 106
internal_count=645 477 432 326 106 117 209 168 106
is_linear=0
shrinkage=0.02


Tree=47
num_leaves=12
num_cat=0
split_feature=0 19 9 33 4 21 10 4 3 20 10
split_gain=76.8155 65.5373 32.2026 35.204 27.9777 25.0224 15.6692 15.3211 15.0023 11.6317 6.88114
threshold=21.985000000000003 5.2500000000000009 88.65000000000002 23.550000000000004 0.094500000000000015 226.50000000000003 10.955000000000002 0.11550000000000002 0.11150000000000002 6.7500000000000009 11.635000000000003
decision_type=2 10 10 8 10 2 10 10 8 10 8
left_child=1 2 3 -1 6 -5 -4 -6 9 10 -2
right_child=8 -3 4 5 7 -7 -8 -9 -10 -11 -12
leaf_value=0.024598643217495705 -0.0028808987908996641 0.024371231368018522 -0.0017672683268785477 -0.0033992850912522667 0.013042002247439491 0.014916484289346856 -0.018005437913157469 -0.0015155304377549327 0 -0.020514402956051649 -0.014304480329932024
leaf_weight=42 55 62 49 78 44 46 52 75 49 52 41
leaf_count=42 55 62 49 78 44 46 52 75 49 52 41
internal_value=0.000819051 0.00542254 0.00227217 0.00892379 -0.00267394 0.00330025 -0.0104182 0.00376425 -0.00952329 -0.0126804 -0.00806308
internal_weight=645 448 386 166 220 124 101 119 197 148 96
internal_count=645 448 386 166 220 124 101 119 197 148 96
is_linear=0
shrinkage=0.02


Tree=48
num_leaves=9
num_cat=0
split_feature=0 5 11 2 1 10 33 11
split_gain=73.952 84.8737 40.0529 26.2699 26.9597 15.5159 12.1131 7.36179
threshold=22.195000000000004 0.25050000000000006 0.56150000000000011 20.750000000000004 1.4500000000000002 10.845000000000001 22.150000000000002 0.40550000000000008
decision_type=2 10 10 8 10 10 10 10
left_child=1 2 3 5 -5 -1 -2 -8
right_child=6 -3 -4 4 -6 -7 7 -9
leaf_value=0 -0.0030293921700545717 0.030708382016290791 0.018882042894512414 -0.0010737429687854004 0.01224864999564846 -0.015115015107802436 -0.01960819746553898 -0.0077725729160010816
leaf_weight=51 62 45 49 184 88 60 59 47
leaf_count=51 62 45 49 184 88 60 59 47
internal_value=0.00080076 0.00484878 0.00204419 -0.000101483 0.00319226 -0.00830765 -0.0105351 -0.0146689
internal_weight=645 477 432 383 272 111 168 106
internal_count=645 477 432 383 272 111 168 106
is_linear=0
shrinkage=0.02


Tree=49
num_leaves=13
num_cat=0
split_feature=1 11 25 2 8 2 37 26 18 34 21 4
split_gain=59.6716 40.8529 26.1586 23.1943 26.6588 19.2939 17.9139 11.6769 9.01731 7.27257 6.69643 4.14489
threshold=1.3500000000000003 0.33150000000000007 0.58550000000000002 28.100000000000005 0.95500000000000007 23.850000000000005 33.500000000000007 0.69850000000000001 101.25000000000001 5.9500000000000011 207.50000000000003 0.079500000000000015
decision_type=8 10 10 8 10 8 10 10 10 10 2 10
left_child=2 5 6 -3 -5 -2 9 -8 -9 -1 -7 -11
right_child=1 3 -4 4 -6 10 7 8 -10 11 -12 -13
leaf_value=-0.020482730854834829 -0.011823049080134793 0.0047715547737768958 0.0053097290665997813 0.0077372657304460362 0.029868104546848268 -0.00078559310873970388 0.0060620007801446179 4.8118891951162373e-05 -0.011521466911352914 -0.013926790793511001 0.0099160239947113128 -0.0043009022557909818
leaf_weight=41 43 71 77 43 53 43 41 44 57 43 43 46
leaf_count=41 43 71 77 43 53 43 41 44 57 43 43 46
internal_value=0.000783098 0.007402 -0.00477861 0.0139099 0.0203435 -0.000911348 -0.00771675 -0.00259773 -0.00633412 -0.0130931 0.0043878 -0.0092769
internal_weight=645 296 349 167 96 129 272 142 101 130 86 89
internal_count=645 296 349 167 96 129 272 142 101 130 86 89
is_linear=0
shrinkage=0.02


Tree=50
num_leaves=7
num_cat=0
split_feature=13 5 9 8 31 34
split_gain=45.0454 30.5235 23.8377 26.6778 13.6452 10.6157
threshold=0.65100000000000013 0.26050000000000006 104.95000000000002 0.93500000000000016 2.6500000000000008 9.1500000000000004
decision_type=8 10 10 10 10 10
left_child=1 2 3 5 -5 -1
right_child=-2 -3 -4 4 -6 -7
leaf_value=-0.012074215559391525 0.013402952138487608 0.013308146158006134 -0.017468104011073033 0.011281766620972617 -0.00082357782640724215 -0.0029436400419834891
leaf_weight=126 72 40 51 43 230 98
leaf_count=126 72 40 51 43 230 98
internal_value=-0.00136609 -0.00322819 -0.00449369 -0.00308975 0.00104435 -0.00819931
internal_weight=660 588 548 497 273 224
internal_count=660 588 548 497 273 224
is_linear=0
shrinkage=0.02


Tree=51
num_leaves=9
num_cat=0
split_feature=13 3 14 2 1 3 36 37
split_gain=43.289 32.8534 21.525 24.7611 16.9062 12.4852 11.2072 6.30948
threshold=0.65100000000000013 0.11550000000000002 2.0500000000000003 20.750000000000004 1.4500000000000002 0.059500000000000004 0.31250000000000006 34.500000000000007
decision_type=8 10 10 8 10 10 8 10
left_child=1 2 6 5 -5 -4 -1 -8
right_child=-2 -3 3 4 -6 -7 7 -9
leaf_value=-8.2319213988933163e-05 0.013138565229226464 0.013999622082564889 -0.017457478036483131 -0.0030965028033979169 0.0076114368605582662 -0.0025394547320212479 -0.014868439747688342 -0.0062679965078298542
leaf_weight=46 72 40 44 112 119 53 105 69
leaf_count=46 72 40 44 112 119 53 105 69
internal_value=-0.00133863 -0.0031646 -0.00447711 -0.00115273 0.00234253 -0.00961956 -0.00931531 -0.0116275
internal_weight=660 588 548 328 231 97 220 174
internal_count=660 588 548 328 231 97 220 174
is_linear=0
shrinkage=0.02


Tree=52
num_leaves=11
num_cat=0
split_feature=0 2 5 15 6 24 3 3 0 3
split_gain=65.0236 73.3582 28.1859 22.1081 20.2145 23.2052 20.9265 9.9206 3.97049 4.77628
threshold=20.255000000000006 19.335000000000004 0.25650000000000006 3.0500000000000003 0.6150000000000001 0.50550000000000017 0.045500000000000006 0.086500000000000007 21.785000000000004 0.075500000000000012
decision_type=2 8 10 10 8 10 10 8 2 10
left_child=1 -1 4 7 8 6 -6 -3 -2 -10
right_child=2 3 -4 -5 5 -7 -8 -9 9 -11
leaf_value=-0.012310255400284574 -0.0083786432990907798 0.012233663381270644 0.008826317294163907 0.0032445561998295336 -0.014701941151030455 0.0080138319822133704 -0.00087398321602806864 0.025898259726532719 -0.010375843556488263 -0.021157564805613625
leaf_weight=53 71 52 46 52 78 52 106 56 50 44
leaf_count=53 71 52 46 52 78 52 106 56 50 44
internal_value=-0.00131335 0.00771866 -0.00566946 0.0145127 -0.00739989 -0.00350311 -0.00689173 0.0196751 -0.0127983 -0.0158027
internal_weight=660 213 447 160 401 236 184 108 165 94
internal_count=660 213 447 160 401 236 184 108 165 94
is_linear=0
shrinkage=0.02


Tree=53
num_leaves=10
num_cat=0
split_feature=0 2 4 15 8 22 0 7 8
split_gain=62.5283 70.6359 23.9949 20.3289 13.9941 11.7016 10.831 8.93115 8.33868
threshold=20.255000000000006 20.750000000000004 0.14950000000000002 3.1500000000000008 0.53500000000000014 8.4500000000000011 23.065000000000001 0.26250000000000007 0.95500000000000007
decision_type=2 8 10 10 10 8 2 8 8
left_child=1 -1 6 4 -3 -4 7 -2 -9
right_child=2 3 5 -5 -6 -7 -8 8 -10
leaf_value=-0.0086278700555714079 0.0021727923818287394 0.010323181937380535 -0.0030741452734644819 0.0036554074221187166 0.027076217787961165 0.011788430225740118 -0.015844420609774732 -0.011981583157465572 -0.0044021254353451009
leaf_weight=70 41 40 40 44 59 40 58 104 164
leaf_count=70 41 40 40 44 59 40 58 104 164
internal_value=-0.00128738 0.00756887 -0.00555959 0.0156411 0.0206782 0.00416402 -0.00773908 -0.00610697 -0.00745136
internal_weight=660 213 447 143 99 80 367 309 268
internal_count=660 213 447 143 99 80 367 309 268
is_linear=0
shrinkage=0.02


Tree=54
num_leaves=11
num_cat=0
split_feature=0 9 5 16 6 8 25 4 23 5
split_gain=60.1175 46.0416 26.4746 24.3422 19.2607 15.9822 15.9202 13.6001 4.07892 8.15473
threshold=20.255000000000006 92.450000000000017 0.25650000000000006 4.7500000000000009 0.6150000000000001 0.93500000000000016 0.55650000000000011 0.15050000000000002 19.550000000000004 0.18150000000000002
decision_type=2 10 10 10 8 8 10 8 10 8
left_child=1 5 4 -3 8 -1 7 -6 9 -2
right_child=2 3 -4 -5 6 -7 -8 -9 -10 -11
leaf_value=0.0066647092591632495 -0.014986826511957343 -0.013635451616275877 0.0085933741783485451 0.0056158459337725154 -0.0019349381668227058 0.023553875234098205 0.0046234071090736472 -0.013899385208049073 -0.01810091792744525 -0.0038460283938409959
leaf_weight=43 62 41 46 68 104 61 68 64 46 57
leaf_count=43 62 41 46 68 104 61 68 64 46 57
internal_value=-0.00126069 0.00742239 -0.00545024 -0.00150178 -0.00712835 0.0168913 -0.00332326 -0.00666644 -0.0123975 -0.00989366
internal_weight=660 213 447 109 401 104 236 168 165 119
internal_count=660 213 447 109 401 104 236 168 165 119
is_linear=0
shrinkage=0.02


Tree=55
num_leaves=10
num_cat=0
split_feature=1 12 2 0 29 26 11 33 30
split_gain=55.9603 40.6225 39.6236 44.9216 27.2993 22.366 12.4606 15.1338 10.4216
threshold=1.4500000000000002 83.125000000000014 21.350000000000005 20.305000000000003 35.250000000000007 0.85950000000000004 0.54700000000000015 27.350000000000005 4.9500000000000011
decision_type=10 2 8 2 10 8 10 8 10
left_child=1 5 -2 -4 8 6 7 -1 -5
right_child=2 -3 3 4 -6 -7 -8 -9 -10
leaf_value=-0.0056063751556814237 -0.0084770574740001131 0.011433122966409429 0.030436013433668349 0.0079916028932414274 0.021157090709283493 0.0066611087440075923 0.00093378265581603329 -0.015767331088733193 -0.0042183209379965609
leaf_weight=173 41 63 44 54 40 48 52 98 54
leaf_count=173 41 63 44 54 40 48 52 98 54
internal_value=0.00101749 -0.00319281 0.00892545 0.0127699 0.00721457 -0.00575427 -0.00767588 -0.00939881 0.00172046
internal_weight=667 434 233 192 148 371 323 271 108
internal_count=667 434 233 192 148 371 323 271 108
is_linear=0
shrinkage=0.02


Tree=56
num_leaves=11
num_cat=0
split_feature=1 12 0 9 34 0 31 1 37 15
split_gain=53.7671 39.0349 38.1218 31.3205 22.1519 15.1476 14.9441 13.7697 18.7168 13.0198
threshold=1.4500000000000002 83.125000000000014 22.555000000000003 88.750000000000014 5.1500000000000012 19.165000000000003 3.3500000000000001 0.95000000000000007 33.500000000000007 2.6500000000000008
decision_type=10 2 2 10 10 2 10 10 10 8
left_child=1 5 3 6 -5 -1 -2 9 -9 -7
right_child=2 -3 -4 4 -6 7 -8 8 -10 -11
leaf_value=0.0048948336457428727 0.030390764533019646 0.011208033332368359 -0.0083131277734147645 -0.0067546817805708903 0.012215698919558928 -0.0045625429609948299 0.0128557783852924 -0.010295120626688003 0.0019598823634881246 -0.017898889898347696
leaf_weight=45 40 63 41 40 58 58 54 90 105 73
leaf_count=45 40 63 41 40 58 58 54 90 105 73
internal_value=0.000999075 -0.00312722 0.00875095 0.0125227 0.00428065 -0.00563885 0.0207694 -0.00716458 -0.0036179 -0.0122251
internal_weight=667 434 233 192 98 371 94 326 195 131
internal_count=667 434 233 192 98 371 94 326 195 131
is_linear=0
shrinkage=0.02


Tree=57
num_leaves=10
num_cat=0
split_feature=1 2 0 12 0 10 26 11 19
split_gain=51.6684 37.5567 42.5884 37.5174 22.438 21.8897 21.3538 12.1528 10.1122
threshold=1.4500000000000002 21.350000000000005 20.305000000000003 83.125000000000014 22.425000000000004 10.945000000000002 0.85950000000000004 0.54700000000000015 4.4500000000000011
decision_type=10 8 2 2 2 10 8 10 10
left_child=3 -2 -3 6 5 -4 7 8 -1
right_child=1 2 4 -5 -6 -7 -8 -9 -10
leaf_value=-0.0071060059144344581 -0.0083565618949277068 0.029526028758949704 0.0040080042161158664 0.010987375264849107 -0.0054506493768677481 0.022902794861516286 0.0066004747612287808 0.0010955738511709671 -0.017672700035024663
leaf_weight=223 41 44 66 63 40 42 48 52 48
leaf_count=223 41 44 66 63 40 42 48 52 48
internal_value=0.000979863 0.00857938 0.0123241 -0.00306443 0.00691195 0.0116822 -0.00552747 -0.0074063 -0.00910922
internal_weight=667 233 192 434 148 108 371 323 271
internal_count=667 233 192 434 148 108 371 323 271
is_linear=0
shrinkage=0.02


Tree=58
num_leaves=7
num_cat=0
split_feature=3 12 26 6 11 3
split_gain=41.282 25.6423 22.3396 18.3738 20.3993 13.2165
threshold=0.10750000000000001 83.125000000000014 0.88600000000000012 0.43500000000000005 0.54950000000000021 0.07350000000000001
decision_type=10 2 8 8 10 8
left_child=1 2 3 5 -5 -1
right_child=-2 -3 -4 4 -6 -7
leaf_value=-0.0024161279374926253 0.016381239984480163 0.011871294777966657 0.010956829749047756 -0.0026685158035458902 0.012233135402202607 -0.016048191957064528
leaf_weight=57 62 58 47 337 40 66
leaf_count=57 62 58 47 337 40 66
internal_value=0.000961958 -0.00060962 -0.00198875 -0.003265 -0.00100635 -0.00996262
internal_weight=667 605 547 500 377 123
internal_count=667 605 547 500 377 123
is_linear=0
shrinkage=0.02


Tree=59
num_leaves=11
num_cat=0
split_feature=1 2 0 12 0 10 0 8 12 10
split_gain=49.6045 35.8236 40.8063 34.8597 21.5945 20.8826 14.1632 15.7086 16.4541 3.16456
threshold=1.4500000000000002 21.350000000000005 20.305000000000003 83.125000000000014 22.425000000000004 10.945000000000002 19.165000000000003 0.60500000000000009 80.875000000000014 12.135000000000003
decision_type=10 8 2 2 2 10 2 10 2 8
left_child=3 -2 -3 6 5 -4 -1 9 -9 -8
right_child=1 2 4 -5 -6 -7 7 8 -10 -11
leaf_value=0.0047849605815566106 -0.0081434255519083568 0.02888924523194631 0.0039240768907675104 0.010521842300659046 -0.0053747018149531466 0.022391015824883485 -0.019036646209112027 -0.0070270866551186131 0.0051156351846038247 -0.0093602207141078048
leaf_weight=45 41 44 66 63 40 42 40 185 56 45
leaf_count=45 41 44 66 63 40 42 40 185 56 45
internal_value=0.000943627 0.00839041 0.0120486 -0.00301842 0.00674741 0.0114287 -0.00539358 -0.00687009 -0.00411342 -0.0143148
internal_weight=667 233 192 434 148 108 371 326 241 85
internal_count=667 233 192 434 148 108 371 326 241 85
is_linear=0
shrinkage=0.02


Tree=60
num_leaves=10
num_cat=0
split_feature=6 19 34 34 35 17 10 14 35
split_gain=41.4944 28.6661 19.1363 16.4648 15.0189 14.4633 14.1858 12.2091 10.174
threshold=0.43500000000000005 5.3500000000000005 9.3500000000000032 3.6500000000000008 86.125000000000014 3.2750000000000004 11.275 3.0500000000000003 84.125000000000014
decision_type=8 10 10 8 10 8 10 8 8
left_child=2 3 8 -2 -4 7 -7 -5 -1
right_child=1 -3 4 5 -6 6 -8 -9 -10
leaf_value=-0.0078935789392191053 -0.010634907373088472 0.016534010174125435 -0.0099702638808799836 0.0031502273071557286 0.0065675137537281689 0.0020868151114022326 0.013816045855100339 -0.0097520463620171405 -0.022432377203975035
leaf_weight=46 46 49 45 49 40 235 51 65 45
leaf_count=46 46 49 45 49 40 235 51 65 45
internal_value=-0.000774692 0.0021606 -0.00910877 0.000503263 -0.00196935 0.00185735 0.00428893 -0.00405325 -0.0154662
internal_weight=671 495 176 446 85 400 286 114 91
internal_count=671 495 176 446 85 400 286 114 91
is_linear=0
shrinkage=0.02


Tree=61
num_leaves=13
num_cat=0
split_feature=0 17 8 19 3 1 5 1 5 33 19 34
split_gain=63.0499 38.174 35.9444 31.3027 22.2969 24.8418 21.47 15.1709 9.05429 9.53458 4.65009 3.43992
threshold=21.135000000000002 2.8250000000000006 1.0450000000000002 5.3500000000000005 0.041500000000000009 1.1500000000000001 0.15450000000000003 1.3500000000000003 0.24750000000000003 26.250000000000004 2.8500000000000001 9.1500000000000004
decision_type=2 10 10 8 10 10 10 10 8 10 10 10
left_child=1 3 7 4 -1 -6 -3 11 9 10 -4 -2
right_child=2 6 8 -5 5 -7 -8 -9 -10 -11 -12 -13
leaf_value=-0.002770482243763076 -0.0213702846039803 -0.014867753684520722 -0.0032489397878549538 0.023665281648819265 0.00036556679828494206 0.019674902511021448 0.0047104419976836303 -0.0038393973135480691 0.0075604951082978667 -0.0093093381910505941 0.0055213150463026507 -0.012008761757231774
leaf_weight=71 64 46 48 51 50 62 40 50 40 58 45 46
leaf_count=71 64 46 48 51 50 62 40 50 40 58 45 46
internal_value=-0.000759154 0.00561877 -0.00663005 0.00982673 0.00575374 0.0113112 -0.00558226 -0.0135981 -0.000648376 -0.00298992 0.000795558 -0.0177791
internal_weight=671 320 351 234 183 112 86 160 191 151 93 110
internal_count=671 320 351 234 183 112 86 160 191 151 93 110
is_linear=0
shrinkage=0.02


Tree=62
num_leaves=12
num_cat=0
split_feature=0 5 6 13 23 3 33 29 5 20 29
split_gain=60.6305 29.1843 27.3707 24.4653 22.9568 20.1723 18.6919 16.9779 16.0627 14.2476 4.55926
threshold=21.135000000000002 0.22150000000000003 0.49500000000000005 0.54550000000000021 20.450000000000003 0.055500000000000008 20.125000000000004 37.750000000000007 0.24750000000000003 6.6500000000000012 37.750000000000007
decision_type=2 10 8 10 8 10 10 8 8 10 8
left_child=1 4 10 -4 5 6 -1 -7 9 -5 -2
right_child=2 -3 3 8 -6 7 -8 -9 -10 -11 -12
leaf_value=0.00073534641414880759 -0.010644530927820597 0.019793087623405214 -0.014929762591536229 0.0010402356375656698 0.014270283343004328 -0.002677322274872235 -0.015748627490185678 0.012783413101283333 0.0090345005135311456 -0.012543450944953493 -0.020776497324452154
leaf_weight=61 63 48 51 91 55 48 46 62 60 44 42
leaf_count=61 63 48 51 91 55 48 46 62 60 44 42
internal_value=-0.000744147 0.00550956 -0.00650181 -0.00272873 0.00285241 -1.9623e-06 -0.00624624 0.00589339 0.000420158 -0.00329966 -0.0150438
internal_weight=671 320 351 246 272 217 107 110 195 135 105
internal_count=671 320 351 246 272 217 107 110 195 135 105
is_linear=0
shrinkage=0.02


Tree=63
num_leaves=11
num_cat=0
split_feature=6 19 25 3 7 3 7 32 2 10
split_gain=38.2993 26.8041 18.7841 24.0033 18.232 12.7521 11.2105 7.86677 6.84387 5.7893
threshold=0.43500000000000005 5.3500000000000005 0.51350000000000018 0.061500000000000006 0.37350000000000005 0.096500000000000016 0.41450000000000004 1.8500000000000003 22.150000000000002 11.345000000000001
decision_type=8 10 8 10 8 10 8 8 10 10
left_child=5 2 3 -2 8 7 -6 -1 -4 -9
right_child=1 -3 4 -5 6 -7 -8 9 -10 -11
leaf_value=-0.0042590386027263269 -0.013644575847105846 0.015988702712953093 0.013341575826275837 0.0031554575564880527 -0.0062999050922786142 0 0.0033093628105521199 -0.02071091411754172 0.002288416624069214 -0.0086929561452167795
leaf_weight=44 71 49 72 61 78 46 124 46 40 40
leaf_count=44 71 49 72 61 78 46 124 46 40 40
internal_value=-0.000729254 0.00208952 0.000485385 -0.0057652 0.00318647 -0.00873707 -0.00031538 -0.0119197 0.0096262 -0.0155152
internal_weight=671 495 446 132 314 176 202 130 112 86
internal_count=671 495 446 132 314 176 202 130 112 86
is_linear=0
shrinkage=0.02


Tree=64
num_leaves=13
num_cat=0
split_feature=0 2 6 0 15 13 15 22 5 20 29 29
split_gain=58.4464 39.8585 25.5041 24.6091 23.1867 23.1067 21.3617 16.5957 15.1499 13.7863 11.2269 4.33681
threshold=21.135000000000002 20.750000000000004 0.49500000000000005 19.975000000000005 3.2500000000000004 0.54550000000000021 2.3500000000000001 7.9500000000000011 0.24750000000000003 6.6500000000000012 38.750000000000007 37.750000000000007
decision_type=2 8 8 2 8 10 10 8 8 10 8 8
left_child=1 10 11 6 7 -4 -3 -5 9 -7 -1 -2
right_child=2 3 5 4 -6 8 -8 -9 -10 -11 -12 -13
leaf_value=-0.012700983596608996 -0.010313475483271758 0.028246436026834309 -0.014576908387243749 0.00012492314674133478 -0.0082534084573041566 0.00099191455170512212 0.0090771309341957322 0.018199736418371852 0.0087070818709545448 -0.012366193181938597 0.0012857597793747737 -0.020215508366913295
leaf_weight=46 63 41 51 42 42 91 66 43 60 44 40 42
leaf_count=46 63 41 51 42 42 91 66 43 60 44 40 42
internal_value=-0.000714089 0.00542539 -0.00636767 0.00972673 0.0035255 -0.00272101 0.0168011 0.00960651 0.000336273 -0.0032737 -0.00602563 -0.0146163
internal_weight=671 320 351 234 127 246 107 85 195 135 86 105
internal_count=671 320 351 234 127 246 107 85 195 135 86 105
is_linear=0
shrinkage=0.02


Tree=65
num_leaves=10
num_cat=0
split_feature=0 11 1 0 7 12 29 3 0
split_gain=24.795 29.0013 26.4747 15.8545 12.0696 12.4123 13.7702 21.55 10.8993
threshold=20.255000000000006 0.29950000000000004 1.4500000000000002 19.340000000000003 0.63350000000000006 82.375000000000014 32.750000000000007 0.094500000000000015 21.835000000000004
decision_type=2 10 10 2 8 2 10 8 2
left_child=1 3 -3 -1 5 6 8 -8 -2
right_child=4 2 -4 -5 -6 -7 7 -9 -10
leaf_value=0.0035722464338565868 -0.0024268264858386453 0.0025960323533841538 0.022887166846882214 -0.012569229972172292 -0.014599703821268947 0.0062757858133915328 -0.0047988175447764144 0.010471856981515884 -0.012728300914519802
leaf_weight=47 77 69 43 46 43 45 139 49 105
leaf_count=47 77 69 43 46 43 45 139 49 105
internal_value=-0.00188398 0.00383239 0.010697 -0.00424772 -0.00448896 -0.00336069 -0.00460036 -0.000678527 -0.00851635
internal_weight=663 205 112 93 458 415 370 188 182
internal_count=663 205 112 93 458 415 370 188 182
is_linear=0
shrinkage=0.02


Tree=66
num_leaves=13
num_cat=0
split_feature=0 19 10 8 24 2 0 37 10 12 33 35
split_gain=23.8469 38.9874 27.2376 18.556 19.5433 21.016 12.7774 12.1377 10.946 8.2133 8.04717 4.19362
threshold=20.255000000000006 4.1500000000000012 11.085000000000003 0.94500000000000006 0.45850000000000007 32.550000000000004 21.835000000000004 32.500000000000007 11.105000000000002 78.875000000000014 23.850000000000005 86.625000000000014
decision_type=2 10 10 10 10 8 2 10 8 2 8 8
left_child=1 2 10 6 8 9 7 -2 -5 -6 -1 -8
right_child=3 -3 -4 4 5 -7 11 -9 -10 -11 -12 -13
leaf_value=0.011275084883321162 -0.011025984270328826 0.018951090264554118 -0.013036381142715422 0.00038327864349581471 -0.0072893321859565652 0.012810474712340559 -0.018975238034812113 0.0033267706166952848 -0.012016097491400108 0.0043080519924738577 0 -0.0091944128719882844
leaf_weight=42 43 50 51 42 54 60 47 47 71 41 62 53
leaf_count=42 43 50 51 42 54 60 47 47 71 41 62 53
internal_value=-0.00184574 0.00375928 -0.00110316 -0.00440083 -0.000919012 0.00359913 -0.0091768 -0.00335668 -0.00726911 -0.00208307 0.00462665 -0.0141318
internal_weight=663 205 155 458 268 155 190 90 113 95 104 100
internal_count=663 205 155 458 268 155 190 90 113 95 104 100
is_linear=0
shrinkage=0.02


Tree=67
num_leaves=11
num_cat=0
split_feature=3 8 24 20 30 35 35 5 14 25
split_gain=21.7205 12.0055 15.7637 13.1051 20.2819 11.7923 16.3639 7.74689 7.72702 4.43974
threshold=0.11550000000000002 0.81500000000000006 0.44250000000000006 6.6500000000000012 4.7500000000000009 87.625000000000014 84.125000000000014 0.22350000000000003 1.0500000000000003 0.48850000000000005
decision_type=10 10 10 8 10 8 10 8 10 10
left_child=1 5 9 4 -4 6 -1 -5 -7 -3
right_child=-2 2 3 7 -6 8 -8 -9 -10 -11
leaf_value=-0.002197460516118536 0.011526626934193903 -0.010824696927198342 0.00048917047833361895 -0.01004568935710598 0.015257424847888095 0.0033542051547140418 -0.018196125675420293 0.0010930873553913372 -0.0069901388648309203 -0.0027915116667747496
leaf_weight=50 44 55 120 43 55 55 60 51 56 74
leaf_count=50 44 55 120 43 55 55 60 51 56 74
internal_value=-0.00180881 -0.00280604 -0.000669451 0.00203124 0.00530458 -0.00654341 -0.0111895 -0.00384389 -0.00170181 -0.00642728
internal_weight=663 619 398 269 175 221 110 94 111 129
internal_count=663 619 398 269 175 221 110 94 111 129
is_linear=0
shrinkage=0.02


Tree=68
num_leaves=11
num_cat=0
split_feature=3 10 23 33 14 22 3 12 5 30
split_gain=20.8839 10.1184 14.0149 20.8712 12.7488 17.2549 26.4445 24.9469 11.4199 6.25352
threshold=0.11550000000000002 11.235000000000001 19.150000000000002 24.550000000000004 2.2500000000000004 8.7500000000000018 0.048500000000000008 76.375000000000014 0.20350000000000004 4.3500000000000005
decision_type=10 10 8 8 8 8 10 2 10 10
left_child=1 4 3 -3 8 7 -7 -6 9 -1
right_child=-2 2 -4 -5 5 6 -8 -9 -10 -11
leaf_value=-0.013118399485056081 0.011301217470732001 -0.0096909005790948872 -0.016276127203988532 0.0081574518796874249 -0.014809176577971532 0 0.017895782080292702 0.0020741871361014915 0.002911967620076168 -0.0032161416492804337
leaf_weight=66 44 69 47 40 51 101 49 102 41 53
leaf_count=66 44 69 47 40 51 101 49 102 41 53
internal_value=-0.00177321 -0.00275156 -0.00716663 -0.00294461 -0.00120864 0.00114965 0.00599954 -0.00348335 -0.00577827 -0.00893837
internal_weight=663 619 156 109 463 303 150 153 160 119
internal_count=663 619 156 109 463 303 150 153 160 119
is_linear=0
shrinkage=0.02


Tree=69
num_leaves=12
num_cat=0
split_feature=1 24 24 29 15 12 20 22 32 23 22
split_gain=18.36 30.163 21.3475 19.1831 16.9023 22.5859 14.927 8.307 7.56233 5.9724 4.98805
threshold=1.3500000000000003 0.44450000000000006 0.51350000000000018 32.750000000000007 3.2500000000000004 81.125000000000014 6.7500000000000009 2.3500000000000001 2.0500000000000003 17.950000000000003 7.8500000000000005
decision_type=10 10 10 10 10 2 8 10 8 10 8
left_child=4 9 3 -3 5 6 8 -7 -1 -2 -6
right_child=1 2 -4 -5 10 7 -8 -9 -10 -11 -12
leaf_value=-0.0081420182512730969 -0.012990090116148902 0.0029275093984700018 -0.0031631339008786848 0.018996922967560365 -0.005638698077783352 0.010863431659273127 -0.013139983313032301 -0.00030975517938318457 0.0015091340802609922 -0.001489957380222111 -0.016256447192632927
leaf_weight=48 41 61 55 65 40 54 73 45 89 40 52
leaf_count=48 41 61 55 65 40 54 73 45 89 40 52
internal_value=-0.00173726 0.00232508 0.00691301 0.0114591 -0.00444038 -0.00210405 -0.00585543 0.0056324 -0.00176186 -0.00764234 -0.0119654
internal_weight=663 262 181 126 401 309 210 99 137 81 92
internal_count=663 262 181 126 401 309 210 99 137 81 92
is_linear=0
shrinkage=0.02


Tree=70
num_leaves=13
num_cat=0
split_feature=0 10 4 9 24 18 8 18 36 0 9 34
split_gain=32.5591 29.9248 20.2379 18.4006 15.2263 18.8024 12.367 11.7548 11.0122 10.9301 10.0945 7.19278
threshold=20.305000000000003 10.995000000000003 0.094500000000000015 110.05000000000001 0.49450000000000005 103.25000000000001 0.95500000000000007 96.750000000000014 0.35650000000000004 22.600000000000005 100.05000000000001 9.2500000000000018
decision_type=2 10 10 8 10 8 10 10 8 2 10 10
left_child=1 2 8 -3 6 -6 -2 -8 -1 11 -9 -7
right_child=4 3 -4 -5 5 9 7 10 -10 -11 -12 -13
leaf_value=0.011403180950631697 -0.014657596155781955 -0.013469098029392106 0.021054307847068857 0.0051741088672382076 0.012267569080903762 0.0060999063946306706 -0.011666581921279432 0.0032592656602521974 -0.0023431747264805293 -0.011146287958178182 -0.0084591595530509947 -0.0041043174388955854
leaf_weight=47 67 41 51 40 40 49 59 82 41 45 44 60
leaf_count=47 67 41 51 40 40 49 59 82 41 45 44 60
internal_value=-0.000857244 0.00538552 0.0110269 -0.00406785 -0.00398654 0.000127554 -0.00722077 -0.00435558 0.00481954 -0.00295547 -0.000709788 0.000314836
internal_weight=666 220 139 81 446 194 252 185 88 154 126 109
internal_count=666 220 139 81 446 194 252 185 88 154 126 109
is_linear=0
shrinkage=0.02


Tree=71
num_leaves=9
num_cat=0
split_feature=9 6 11 12 21 3 34 37
split_gain=24.7015 18.7619 24.3945 31.0907 15.4568 13.0502 9.54012 8.62374
threshold=104.75000000000001 0.34500000000000003 0.29850000000000004 82.875000000000014 231.50000000000003 0.066500000000000017 9.3500000000000032 35.500000000000007
decision_type=10 8 10 2 2 8 10 8
left_child=1 6 5 4 -4 -3 -1 -7
right_child=-2 2 3 -5 -6 7 -8 -9
leaf_value=-0.015194585283127865 -0.013947750374955952 0.0045180989461748493 0.0044443468941585797 0.020229880192681501 -0.0077205446727421825 -0.013783319622278214 -0.0019554308713658859 -0.0026904870732359482
leaf_weight=40 52 45 256 45 48 54 56 70
leaf_count=40 52 45 256 45 48 54 56 70
internal_value=-0.000840297 0.000258135 0.00179805 0.00484133 0.00243899 -0.00436044 -0.00777771 -0.00775286
internal_weight=666 614 518 349 304 169 96 124
internal_count=666 614 518 349 304 169 96 124
is_linear=0
shrinkage=0.02


Tree=72
num_leaves=11
num_cat=0
split_feature=0 17 30 7 32 0 20 24 9 10
split_gain=31.3635 32.5338 28.2005 21.407 20.5015 12.1931 10.4018 9.32775 15.0599 5.93659
threshold=20.305000000000003 2.8250000000000006 4.0500000000000007 0.39550000000000007 4.9500000000000011 22.285000000000004 5.2500000000000009 0.49450000000000005 90.950000000000017 11.185
decision_type=2 10 10 10 8 2 8 10 10 10
left_child=1 2 -1 6 -4 -5 -2 9 -9 -8
right_child=3 -3 4 5 -6 -7 7 8 -10 -11
leaf_value=-6.9200068180050176e-05 0.00011162931893897407 -0.0085523491235924703 0.0067211375652619131 0.0080013656702179175 0.02552635670900345 -0.0047403205410042346 -0.014325821452636134 0.0023956395441200587 -0.012534694691499076 -0.0044904164380805437
leaf_weight=69 67 50 52 77 49 46 107 63 44 42
leaf_count=69 67 50 52 77 49 46 107 63 44 42
internal_value=-0.000825473 0.00530102 0.00951868 -0.00389735 0.0162014 0.00307509 -0.00661551 -0.00844754 -0.00361797 -0.0117352
internal_weight=666 220 170 446 101 123 323 256 107 149
internal_count=666 220 170 446 101 123 323 256 107 149
is_linear=0
shrinkage=0.02


Tree=73
num_leaves=7
num_cat=0
split_feature=9 8 11 37 11 4
split_gain=23.589 22.0547 22.3003 14.5302 15.6527 9.68678
threshold=104.75000000000001 0.45500000000000007 0.54950000000000021 37.500000000000007 0.32550000000000007 0.060500000000000005
decision_type=10 10 10 10 10 10
left_child=1 5 3 4 -3 -1
right_child=-2 2 -4 -5 -6 -7
leaf_value=-0.0024168670206563547 -0.013618397993861504 -0.0056964138074069286 0.014080669208683751 0.0098169697088710331 0.0023872408662930504 -0.015094105078942247
leaf_weight=63 52 158 54 58 237 44
leaf_count=63 52 158 54 58 237 44
internal_value=-0.000809022 0.00026367 0.00203951 0.000532235 -0.000801936 -0.00790661
internal_weight=666 614 507 453 395 107
internal_count=666 614 507 453 395 107
is_linear=0
shrinkage=0.02


Tree=74
num_leaves=11
num_cat=0
split_feature=8 11 34 1 13 25 5 37 3 16
split_gain=15.8487 21.3997 17.8753 11.3787 11.1125 13.2307 10.3391 8.2224 9.40731 8.25836
threshold=0.45500000000000007 0.32550000000000007 5.5500000000000007 1.6500000000000001 0.62350000000000005 0.50950000000000017 0.13150000000000003 36.500000000000007 0.077500000000000013 6.1500000000000012
decision_type=10 10 10 10 10 10 10 10 10 10
left_child=6 7 3 -3 5 -4 -1 8 9 -2
right_child=1 2 4 -5 -6 -7 -8 -9 -10 -11
leaf_value=-0.0020036332013588106 -0.0079267883375017112 -0.0090519156271281348 0.011292012856522602 0.0043312298329103559 0.014601572436365213 0.00015505890831235767 -0.014933762273731385 0.0023012173029721954 -0.014605946095453369 0.0026016884601237824
leaf_weight=62 68 59 66 41 54 128 46 50 44 48
leaf_count=62 68 59 66 41 54 128 46 50 44 48
internal_value=-0.000793158 0.000535026 0.00360588 -0.00337825 0.00650463 0.00408496 -0.00778088 -0.004452 -0.00668778 -0.00341424
internal_weight=666 558 348 100 248 194 108 210 160 116
internal_count=666 558 348 100 248 194 108 210 160 116
is_linear=0
shrinkage=0.02


Tree=75
num_leaves=12
num_cat=0
split_feature=0 2 1 17 19 12 4 1 17 13 37
split_gain=43.5454 62.1132 27.7582 20.0834 19.4099 18.2273 13.1265 12.4614 10.0987 7.90257 6.62693
threshold=21.395000000000003 20.750000000000004 1.4500000000000002 2.9050000000000007 3.9500000000000006 83.375000000000014 0.14950000000000002 1.2500000000000002 2.8500000000000001 0.56250000000000011 34.500000000000007
decision_type=2 8 10 10 10 2 8 10 10 10 10
left_child=1 8 5 6 -4 9 10 -8 -1 -3 -2
right_child=3 2 4 -5 -6 -7 7 -9 -10 -11 -12
leaf_value=-0.00083926246989341011 -0.016104329347858826 -0.0039885750279878267 0.010330586052955466 0.0040146993029568541 0.030319545456143314 0.017092276937431757 -0.01044446559445489 0.0038469443097710609 -0.013317620710283518 0.0061791297843730129 -0.0050460318538049853
leaf_weight=62 74 49 46 75 42 44 41 55 49 73 41
leaf_count=62 74 49 46 75 42 44 41 55 49 73 41
internal_value=0.00113439 0.00573088 0.011201 -0.0046616 0.020329 0.00614958 -0.00784432 -0.00209524 -0.00659602 0.00193355 -0.0124117
internal_weight=651 365 254 286 88 166 211 96 111 122 115
internal_count=651 365 254 286 88 166 211 96 111 122 115
is_linear=0
shrinkage=0.02


Tree=76
num_leaves=12
num_cat=0
split_feature=23 21 23 33 30 34 18 7 30 11 7
split_gain=20.8319 16.2915 34.2625 17.9029 13.6814 12.2833 24.3398 9.46246 5.64707 6.29563 6.02984
threshold=17.050000000000004 205.50000000000003 18.050000000000004 30.050000000000004 5.1500000000000012 4.6500000000000012 99.250000000000014 0.33750000000000008 4.4500000000000011 0.34050000000000008 0.35950000000000004
decision_type=8 2 8 8 10 10 10 10 10 10 8
left_child=4 5 -3 7 8 -2 -7 -4 9 10 -1
right_child=1 2 3 -5 -6 6 -8 -9 -10 -11 -12
leaf_value=-0.001098382997819606 -0.0080748084630688725 0.023160997664798861 -0.0088314681567929019 0.011099934597071764 0.0055378570604758962 0.014501908918799355 -0.0068770609214538481 0.0031902410636746115 -0.012031119858346335 0.0020337694431231783 -0.0098674128718779126
leaf_weight=67 57 45 43 73 59 42 40 61 40 54 70
leaf_count=67 57 45 43 73 59 42 40 61 40 54 70
internal_value=0.00111177 0.00433507 0.00769512 0.00354273 -0.00283307 -0.000905116 0.00387497 -0.00162657 -0.00507196 -0.00345531 -0.00576287
internal_weight=651 361 222 177 290 139 82 104 231 191 137
internal_count=651 361 222 177 290 139 82 104 231 191 137
is_linear=0
shrinkage=0.02


Tree=77
num_leaves=9
num_cat=0
split_feature=16 1 21 13 23 33 6 3
split_gain=28.5323 20.1366 15.8101 20.0319 17.5991 17.1615 13.1923 6.23132
threshold=10.850000000000003 2.2500000000000004 215.50000000000003 0.52550000000000019 17.850000000000005 28.150000000000002 0.83500000000000008 0.066500000000000017
decision_type=10 10 2 10 10 8 8 8
left_child=1 2 4 -4 7 -6 -5 -1
right_child=-2 -3 3 6 5 -7 -8 -9
leaf_value=-0.0030754447004324955 0.014117552835921771 0.013086555839649268 0.014110058500094618 -0.0033408162480172438 0.011041030972958246 -0.0047936746868072078 0.007889895462676098 -0.011183332343464312
leaf_weight=70 60 41 46 155 46 63 56 114
leaf_count=70 60 41 46 155 46 63 56 114
internal_value=0.00108931 -0.000221185 -0.00127146 0.00229353 -0.00446363 0.00174667 -0.000242657 -0.00824022
internal_weight=651 591 550 257 293 109 211 184
internal_count=651 591 550 257 293 109 211 184
is_linear=0
shrinkage=0.02


Tree=78
num_leaves=11
num_cat=0
split_feature=0 2 11 15 0 17 29 8 5 0
split_gain=41.7811 58.3103 29.9196 23.7591 22.1759 19.2175 16.1131 11.4675 16.6338 7.86234
threshold=21.395000000000003 20.750000000000004 0.29550000000000004 3.5500000000000003 20.275000000000002 2.9050000000000007 31.750000000000004 0.6150000000000001 0.18050000000000002 22.515000000000004
decision_type=2 8 10 10 2 10 10 8 8 2
left_child=1 6 -3 4 -4 7 -1 -2 -9 -10
right_child=5 2 3 -5 -6 -7 -8 8 9 -11
leaf_value=0.0024719490272843321 -0.0173205431065123 -0.00030881657319910386 0.0287236062536637 0.0026255067583977011 0.011597712080737082 0.0038746198305958197 -0.012640905110026473 -0.015846497162499213 0.0019702650468016781 -0.0084123181140180244
leaf_weight=45 41 67 59 50 78 75 66 43 85 42
leaf_count=45 41 67 59 50 78 75 66 43 85 42
internal_value=0.00106868 0.00557187 0.0108727 0.0149656 0.0192727 -0.0046081 -0.00636813 -0.00772168 -0.00520195 -0.00134599
internal_weight=651 365 254 187 137 286 111 211 170 127
internal_count=651 365 254 187 137 286 111 211 170 127
is_linear=0
shrinkage=0.02


Tree=79
num_leaves=12
num_cat=0
split_feature=0 2 15 9 29 10 29 13 17 8 12
split_gain=40.1717 56.0332 25.9354 23.6732 18.5621 15.5923 15.4974 13.219 10.2836 8.06734 7.81903
threshold=21.395000000000003 20.750000000000004 3.5500000000000003 96.850000000000009 35.250000000000007 11.595000000000001 31.750000000000004 0.63550000000000006 2.9750000000000005 0.97500000000000009 77.375000000000014
decision_type=2 8 8 8 10 8 10 8 10 8 2
left_child=1 6 3 -3 9 -5 -1 -4 -6 -2 -11
right_child=4 2 7 5 8 -7 -8 -9 -10 10 -12
leaf_value=0.0024235847300809361 -0.013346522015329499 0.0037203806160755878 -0.0049244603455066687 0.011165389113128185 -0.0029122735610739754 0.027540815124909083 -0.01239186056403082 0.010093976176062296 0.01007293701171875 -0.010691163004181969 0
leaf_weight=45 75 52 49 49 54 62 66 42 41 47 69
leaf_count=45 75 52 49 49 54 62 66 42 41 47 69
internal_value=0.00104721 0.0054633 0.0106602 0.01543 -0.00451843 0.0206548 -0.00623902 0.00182411 0.00253009 -0.00812332 -0.0044901
internal_weight=651 365 254 163 286 111 111 91 95 191 116
internal_count=651 365 254 163 286 111 111 91 95 191 116
is_linear=0
shrinkage=0.02


Tree=80
num_leaves=8
num_cat=0
split_feature=6 3 34 7 23 6 29
split_gain=21.7214 26.9881 11.5526 9.93408 12.2757 11.0954 9.67622
threshold=0.33500000000000008 0.10850000000000001 3.3500000000000001 0.35950000000000004 15.250000000000002 1.3650000000000004 31.250000000000004
decision_type=8 10 10 10 10 8 10
left_child=6 2 -2 4 -4 -5 -1
right_child=1 -3 3 5 -6 -7 -8
leaf_value=-0.016394293985741083 -0.007856033315909082 0.01575079682080642 -0.0033416791340479487 -0.0046626623929049704 0.0067725091420791361 0.0064494944463173555 -0.0029674981387883977
leaf_weight=42 68 45 64 162 164 44 53
leaf_count=42 68 45 64 162 164 44 53
internal_value=-0.000423423 0.001082 -0.000221865 0.000943605 0.00384391 -0.00217288 -0.00922083
internal_weight=642 547 502 434 228 206 95
internal_count=642 547 502 434 228 206 95
is_linear=0
shrinkage=0.02


Tree=81
num_leaves=12
num_cat=0
split_feature=0 1 17 21 1 13 35 8 32 7 5
split_gain=37.9489 24.1698 19.1345 24.8541 25.5898 18.7983 18.2249 13.3212 12.3625 19.0415 10.7604
threshold=20.305000000000003 1.4500000000000002 2.8250000000000006 227.50000000000003 1.3500000000000003 0.61650000000000016 79.875000000000014 0.81500000000000006 5.0500000000000007 0.35650000000000004 0.20850000000000002
decision_type=2 10 10 2 10 10 10 10 8 10 10
left_child=2 5 3 4 -1 6 -2 -8 10 -10 -3
right_child=1 8 -4 -5 -6 -7 7 -9 9 -11 -12
leaf_value=0.00646192815812195 -0.019221973807459148 0.0032299167377112265 -0.004009903320243125 -0.0011172969798956599 0.026396802644780341 0.00086402686046702527 -0.013531353142685616 0 -0.0019861957866971086 0.016755384996879931 -0.010801298923608734
leaf_weight=67 70 43 52 55 46 69 51 67 40 42 40
leaf_count=67 70 43 52 55 46 69 51 67 40 42 40
internal_value=-0.000415771 -0.00395345 0.00626682 0.00957096 0.0149128 -0.0077931 -0.011064 -0.00593563 0.00191753 0.0074584 -0.00334211
internal_weight=642 422 220 168 113 257 188 118 165 82 83
internal_count=642 422 220 168 113 257 188 118 165 82 83
is_linear=0
shrinkage=0.02


Tree=82
num_leaves=12
num_cat=0
split_feature=0 2 15 25 8 10 33 5 36 20 31
split_gain=36.4615 21.9504 26.6478 20.9638 19.8088 12.7943 15.5408 15.2556 9.83803 8.18018 5.80518
threshold=20.305000000000003 19.335000000000004 3.5500000000000003 0.53250000000000008 0.81500000000000006 10.585000000000003 25.950000000000003 0.18550000000000003 0.31650000000000006 6.7500000000000009 2.2500000000000004
decision_type=2 8 8 10 10 10 8 8 8 10 10
left_child=1 -1 3 -3 8 6 -6 -7 -2 -9 -10
right_child=4 2 -4 -5 5 7 -8 9 10 -11 -12
leaf_value=-0.0048910653759848396 -0.0013364900149066339 0.025999488740538559 0 0.006795880561167339 0.0013356639706251913 -0.0051121633059034747 -0.01306751929665521 0.011920804798137397 -0.018156643808750365 0.00014667151157151569 -0.0072489618595379095
leaf_weight=52 43 47 69 52 56 59 58 63 53 43 47
leaf_count=52 43 47 69 52 56 59 58 63 53 43 47
internal_value=-0.000407445 0.00614218 0.00968431 0.0162816 -0.00387567 -0.000686413 -0.00586827 0.00278708 -0.00991121 0.00737743 -0.0133506
internal_weight=642 220 168 99 422 279 114 165 143 106 100
internal_count=642 220 168 99 422 279 114 165 143 106 100
is_linear=0
shrinkage=0.02


Tree=83
num_leaves=12
num_cat=0
split_feature=0 1 2 24 27 13 13 32 7 5 0
split_gain=35.0593 22.8954 21.1198 35.6077 18.268 15.7136 14.8736 11.9047 18.1855 10.4078 6.28947
threshold=20.305000000000003 1.4500000000000002 19.335000000000004 0.47850000000000004 2.7500000000000004 0.62250000000000016 0.61650000000000016 5.0500000000000007 0.35650000000000004 0.20850000000000002 21.985000000000003
decision_type=2 10 8 8 8 8 10 8 10 10 2
left_child=2 4 -1 -4 6 -5 10 9 -9 -3 -2
right_child=1 7 3 5 -6 -7 -8 8 -10 -11 -12
leaf_value=-0.0047950896086557853 -0.0026700042898301036 0.0032117450116625561 0.021000475240024654 -0.0071472834075562829 -0.015568344266153873 0.008491026989875302 0.0047929446730348799 -0.001870448085956457 0.016434261053800584 -0.010586032913884194 -0.01218091557541537
leaf_weight=52 63 43 65 42 79 61 53 40 42 40 62
leaf_count=52 63 43 65 42 79 61 53 40 42 40 62
internal_value=-0.000399145 -0.0038006 0.00602263 0.00949788 -0.00753847 0.00191452 -0.00379586 0.00191129 0.00734922 -0.00324655 -0.00760538
internal_weight=642 422 220 168 257 103 178 165 82 83 125
internal_count=642 422 220 168 257 103 178 165 82 83 125
is_linear=0
shrinkage=0.02


Tree=84
num_leaves=11
num_cat=0
split_feature=0 2 7 21 29 13 19 35 6 10
split_gain=33.683 20.308 28.3506 22.8075 11.7964 13.4808 12.8838 12.507 8.67071 7.90628
threshold=20.305000000000003 19.335000000000004 0.44500000000000006 227.50000000000003 35.250000000000007 0.58050000000000013 5.4500000000000011 80.125000000000014 1.155 11.165000000000001
decision_type=2 8 8 2 10 10 8 10 8 10
left_child=1 -1 3 -3 6 -6 7 8 -2 -9
right_child=4 2 -4 -5 5 -7 -8 9 -10 -11
leaf_value=-0.004700997272190058 -0.012560402446736892 0.021197573298757728 -0.0026073895018758641 0.0019381568726243043 -0.0047279519860684458 0.0078366379765793682 -0.016151575231924654 0.006935425394651841 -0.0019002864640206099 -0.0037554542377831474
leaf_weight=52 77 76 52 40 71 63 43 48 59 61
leaf_count=52 77 76 52 40 71 63 43 48 59 61
internal_value=-0.000391812 0.00590196 0.00931057 0.0148007 -0.0037264 0.00104542 -0.00601177 -0.0040924 -0.00812941 0.000790888
internal_weight=642 220 168 116 422 134 288 245 136 109
internal_count=642 220 168 116 422 134 288 245 136 109
is_linear=0
shrinkage=0.02


Tree=85
num_leaves=11
num_cat=0
split_feature=0 8 4 4 26 9 9 18 36 7
split_gain=48.23 18.9111 16.6687 16.1743 18.0055 18.831 12.1196 10.2105 8.18964 3.18155
threshold=21.835000000000004 1.0350000000000004 0.10850000000000001 0.11950000000000001 0.78250000000000008 92.850000000000009 104.25000000000001 108.75000000000001 0.34050000000000008 0.41550000000000004
decision_type=2 10 8 8 10 10 8 8 10 8
left_child=2 9 7 -4 5 -5 -3 8 -1 -2
right_child=1 6 3 4 -6 -7 -8 -9 -10 -11
leaf_value=-0.013034335137768225 -0.010891251226126308 0.0018336517481109152 0.017190664643194617 0.0042569052627039776 0.011485969288782641 -0.0097150312892959594 -0.010909415844907152 0.0048449799249118027 -0.00088808599531788523 -0.019644958938277043
leaf_weight=43 70 76 40 123 76 55 46 43 53 42
leaf_count=43 70 76 40 123 76 55 46 43 53 42
internal_value=-0.00123473 -0.00855133 0.00268379 0.00540017 0.00340484 0 -0.00285814 -0.00291634 -0.00661307 -0.0144957
internal_weight=667 234 433 294 254 178 122 139 96 112
internal_count=667 234 433 294 254 178 122 139 96 112
is_linear=0
shrinkage=0.02


Tree=86
num_leaves=11
num_cat=0
split_feature=0 8 1 9 12 0 27 29 32 32
split_gain=46.3707 18.181 17.6194 32.0752 25.671 22.8155 19.6925 19.6467 12.923 4.13699
threshold=21.835000000000004 1.0350000000000004 1.5500000000000003 88.550000000000011 81.625000000000014 20.315000000000001 2.9500000000000006 36.750000000000007 1.7500000000000002 4.0500000000000007
decision_type=2 10 10 10 2 2 8 8 10 8
left_child=2 9 4 -4 6 -6 7 -1 -3 -2
right_child=1 8 3 -5 5 -7 -8 -9 -10 -11
leaf_value=-0.0083654654874025201 -0.0080001007418992916 -0.0094315176869391414 0.022294399038605067 3.8866349495947364e-06 0.016910894325581089 -0.0021501293397020727 -0.011486601410551538 0.0064862358253052902 0.0033495351264164566 -0.017496594847770223
leaf_weight=56 42 60 45 63 57 41 78 93 62 70
leaf_count=56 42 60 45 63 57 41 78 93 62 70
internal_value=-0.0012108 -0.00838538 0.00263076 0.00959441 0.000233005 0.0087932 -0.00339722 0.000752498 -0.0027992 -0.0142147
internal_weight=667 234 433 108 325 98 227 149 122 112
internal_count=667 234 433 108 325 98 227 149 122 112
is_linear=0
shrinkage=0.02


Tree=87
num_leaves=11
num_cat=0
split_feature=0 8 1 9 12 0 27 4 32 32
split_gain=44.582 17.4782 16.9545 30.814 24.6552 21.945 18.9195 13.404 12.4249 3.94605
threshold=21.835000000000004 1.0350000000000004 1.5500000000000003 88.550000000000011 81.625000000000014 20.315000000000001 2.9500000000000006 0.098500000000000018 1.7500000000000002 4.0500000000000007
decision_type=2 10 10 10 2 2 8 10 10 8
left_child=2 9 4 -4 6 -6 7 -1 -3 -2
right_child=1 8 3 -5 5 -7 -8 -9 -10 -11
leaf_value=-0.0048099327804167055 -0.0078438196851070546 -0.0092459794860638555 0.021858204170737579 3.8101419340819119e-06 0.016578507762530753 -0.0021081507693798767 -0.011259777479557484 0.0070856146390239393 0.0032836078976591428 -0.017151591546676108
leaf_weight=78 42 60 45 63 57 41 78 71 62 70
leaf_count=78 42 60 45 63 57 41 78 71 62 70
internal_value=-0.00118682 -0.00822206 0.00257924 0.00941029 0.000225976 0.00861627 -0.00333045 0.00073453 -0.00274095 -0.0139385
internal_weight=667 234 433 108 325 98 227 149 122 112
internal_count=667 234 433 108 325 98 227 149 122 112
is_linear=0
shrinkage=0.02


Tree=88
num_leaves=12
num_cat=0
split_feature=0 2 14 0 11 8 12 34 15 3 7
split_gain=42.8641 28.2382 16.9242 19.7681 17.0598 16.8027 13.2211 10.8866 9.33777 5.86989 3.05462
threshold=21.835000000000004 20.750000000000004 2.0500000000000003 20.305000000000003 0.42950000000000005 1.0350000000000004 81.125000000000014 10.65 2.1500000000000008 0.071500000000000008 0.41550000000000004
decision_type=2 8 10 2 10 10 2 8 10 8 8
left_child=1 9 6 -4 -5 10 -3 -8 -7 -1 -2
right_child=5 2 3 4 -6 8 7 -9 -10 -11 -12
leaf_value=-0.0013107286285488837 -0.010157496881422024 -0.0052354894694242931 0.019530381302712327 0.011216478376619278 -0.0052121355620826162 -0.0094080352413468057 -0.00017101877547324971 0.013413443210166553 0.0016255107753228937 -0.010877673810980511 -0.01868055650661158
leaf_weight=61 70 73 58 61 40 49 46 42 73 52 42
leaf_count=61 70 73 58 61 40 49 46 42 73 52 42
internal_value=-0.00116319 0.00252891 0.00559293 0.0102126 0.00452671 -0.00806196 0.000872308 0.00616562 -0.00268385 -0.00594546 -0.0136677
internal_weight=667 433 320 159 101 234 161 88 122 113 112
internal_count=667 433 320 159 101 234 161 88 122 113 112
is_linear=0
shrinkage=0.02


Tree=89
num_leaves=14
num_cat=0
split_feature=0 1 9 14 9 18 0 4 20 34 11 7 18
split_gain=41.1933 16.122 29.3765 14.6799 14.2735 10.6593 18.0425 10.9193 8.80855 7.56356 6.77151 6.07728 5.40258
threshold=21.835000000000004 1.5500000000000003 88.550000000000011 2.0500000000000003 104.05000000000001 109.25000000000001 20.315000000000001 0.10850000000000001 6.4500000000000011 10.15 0.36150000000000004 0.34150000000000008 103.75000000000001
decision_type=2 10 10 10 8 8 2 10 10 8 10 8 10
left_child=1 5 -3 12 10 7 9 11 -9 -7 -5 -1 -2
right_child=3 2 -4 4 -6 6 -8 8 -10 -11 -12 -13 -14
leaf_value=-0.011667114564201289 -0.0076222062256278058 0.021290262366604546 0 -0.0039440743509857427 -0.011014220766242474 0.0037367757628563531 -0.0038682285068019975 0.0091466333117426885 -0.0037828908606273373 0.016725658614461014 0.0072183533515347989 -0.0014843064323067665 -0.018963672581548786
leaf_weight=56 40 45 63 41 61 42 58 40 40 40 42 49 50
leaf_count=56 40 45 63 41 61 42 58 40 40 40 42 49 50
internal_value=-0.00114218 0.00247655 0.0091371 -0.00790554 -0.00371134 0.000180615 0.00438445 -0.00289961 0.00246807 0.010439 0.00148498 -0.00716265 -0.014282
internal_weight=667 433 108 234 144 325 140 185 80 82 83 105 90
internal_count=667 433 108 234 144 325 140 185 80 82 83 105 90
is_linear=0
shrinkage=0.02


Tree=90
num_leaves=13
num_cat=0
split_feature=9 10 15 21 33 24 24 28 35 30 33 32
split_gain=24.0171 31.9238 32.6451 14.5705 12.1749 22.0358 10.4741 9.03399 15.1306 12.2602 15.6235 7.75124
threshold=88.950000000000017 11.485000000000001 2.9500000000000006 189.50000000000003 24.140000000000004 0.50750000000000017 0.41250000000000003 0.29950000000000004 76.375000000000014 4.6500000000000012 25.950000000000003 2.8500000000000001
decision_type=10 8 8 2 10 10 10 10 10 10 10 10
left_child=1 2 -1 -2 5 6 -3 9 -9 -5 -11 -10
right_child=3 4 -4 7 -6 -7 -8 8 11 10 -12 -13
leaf_value=0.024004149724330223 -0.011390233864898193 0.0041571064774946469 1.8799615403016409e-05 -0.012846130888376916 -0.008991205812148427 0.012617134424089863 -0.0091700721589418558 0.012152515107935125 -0.0055820388092684579 0.0086156102606072659 -0.0087369194697766075 0.0049132289331067693
leaf_weight=55 67 40 41 48 45 56 51 43 73 40 41 43
leaf_count=55 67 40 41 48 45 56 51 43 73 40 41 43
internal_value=0.000410428 0.00472042 0.0140724 -0.00303338 0 0.00278902 -0.00311307 -0.000987367 0.00211139 -0.00494747 0 -0.00151187
internal_weight=643 288 96 355 192 147 91 288 159 129 81 116
internal_count=643 288 96 355 192 147 91 288 159 129 81 116
is_linear=0
shrinkage=0.02


Tree=91
num_leaves=9
num_cat=0
split_feature=0 9 0 19 15 34 37 35
split_gain=32.3914 24.5466 23.644 20.8526 17.4299 8.76267 8.22388 7.35949
threshold=19.015000000000004 102.65000000000002 22.555000000000003 2.8500000000000001 3.2500000000000004 5.5500000000000007 33.500000000000007 82.375000000000014
decision_type=2 10 2 10 10 10 10 8
left_child=-1 2 3 5 -5 -2 -3 -4
right_child=1 6 7 4 -6 -7 -8 -9
